digraph Tree {
node [shape=box, style="filled, rounded", color="black", fontname=helvetica] ;
edge [fontname=helvetica] ;
0 [label="YesMr <= 0.0\nentropy = 0.9999\nsamples = 561\nvalue = [441.4426, 452.0132]\nclass = Survived", fillcolor="#399de506"] ;
1 [label="FamilySize <= 4.5\nentropy = 0.7643\nsamples = 237\nvalue = [94.9426, 332.1711]\nclass = Survived", fillcolor="#399de5b6"] ;
0 -> 1 [labeldistance=2.5, labelangle=45, headlabel="True"] ;
2 [label="Fare <= 3.5\nentropy = 0.6203\nsamples = 203\nvalue = [58.4262, 320.4474]\nclass = Survived", fillcolor="#399de5d1"] ;
1 -> 2 ;
3 [label="AgeGroup <= 0.5\nentropy = 0.7488\nsamples = 146\nvalue = [55.9918, 205.8158]\nclass = Survived", fillcolor="#399de5ba"] ;
2 -> 3 ;
4 [label="HasCabin <= 0.0\nentropy = 0.2114\nsamples = 23\nvalue = [1.623, 46.8947]\nclass = Survived", fillcolor="#399de5f6"] ;
3 -> 4 ;
5 [label="entropy = -0.0\nsamples = 20\nvalue = [0.0, 40.3816]\nclass = Survived", fillcolor="#399de5ff"] ;
4 -> 5 ;
6 [label="entropy = 0.7209\nsamples = 3\nvalue = [1.623, 6.5132]\nclass = Survived", fillcolor="#399de5bf"] ;
4 -> 6 ;
7 [label="Gender <= 0.0\nentropy = 0.819\nsamples = 123\nvalue = [54.3689, 158.9211]\nclass = Survived", fillcolor="#399de5a8"] ;
3 -> 7 ;
8 [label="HasCabin <= 0.0\nentropy = 0.7115\nsamples = 114\nvalue = [38.1393, 157.6184]\nclass = Survived", fillcolor="#399de5c1"] ;
7 -> 8 ;
9 [label="entropy = 0.7429\nsamples = 102\nvalue = [36.5164, 136.7763]\nclass = Survived", fillcolor="#399de5bb"] ;
8 -> 9 ;
10 [label="entropy = 0.3742\nsamples = 12\nvalue = [1.623, 20.8421]\nclass = Survived", fillcolor="#399de5eb"] ;
8 -> 10 ;
11 [label="YesRev <= 0.0\nentropy = 0.3818\nsamples = 9\nvalue = [16.2295, 1.3026]\nclass = Died", fillcolor="#e58139eb"] ;
7 -> 11 ;
12 [label="entropy = 0.5236\nsamples = 5\nvalue = [9.7377, 1.3026]\nclass = Died", fillcolor="#e58139dd"] ;
11 -> 12 ;
13 [label="entropy = 0.0\nsamples = 4\nvalue = [6.4918, 0.0]\nclass = Died", fillcolor="#e58139ff"] ;
11 -> 13 ;
14 [label="EmbarkIsS <= 0.0\nentropy = 0.1459\nsamples = 57\nvalue = [2.4344, 114.6316]\nclass = Survived", fillcolor="#399de5fa"] ;
2 -> 14 ;
15 [label="entropy = 0.0\nsamples = 25\nvalue = [0.0, 49.5]\nclass = Survived", fillcolor="#399de5ff"] ;
14 -> 15 ;
16 [label="AgeGroup <= 0.5\nentropy = 0.2238\nsamples = 32\nvalue = [2.4344, 65.1316]\nclass = Survived", fillcolor="#399de5f5"] ;
14 -> 16 ;
17 [label="entropy = 0.8731\nsamples = 3\nvalue = [1.623, 3.9079]\nclass = Survived", fillcolor="#399de595"] ;
16 -> 17 ;
18 [label="entropy = 0.1006\nsamples = 29\nvalue = [0.8115, 61.2237]\nclass = Survived", fillcolor="#399de5fc"] ;
16 -> 18 ;
19 [label="YesMaster <= 0.0\nentropy = 0.8\nsamples = 34\nvalue = [36.5164, 11.7237]\nclass = Died", fillcolor="#e58139ad"] ;
1 -> 19 ;
20 [label="Pclass <= 2.5\nentropy = 0.962\nsamples = 20\nvalue = [18.6639, 11.7237]\nclass = Died", fillcolor="#e581395f"] ;
19 -> 20 ;
21 [label="entropy = 0.0\nsamples = 5\nvalue = [0.0, 7.8158]\nclass = Survived", fillcolor="#399de5ff"] ;
20 -> 21 ;
22 [label="Fare <= 3.5\nentropy = 0.6648\nsamples = 15\nvalue = [18.6639, 3.9079]\nclass = Died", fillcolor="#e58139ca"] ;
20 -> 22 ;
23 [label="FamilySize <= 6.5\nentropy = 0.8\nsamples = 12\nvalue = [12.1721, 3.9079]\nclass = Died", fillcolor="#e58139ad"] ;
22 -> 23 ;
24 [label="entropy = 0.0\nsamples = 5\nvalue = [5.6803, 0.0]\nclass = Died", fillcolor="#e58139ff"] ;
23 -> 24 ;
25 [label="entropy = 0.955\nsamples = 7\nvalue = [6.4918, 3.9079]\nclass = Died", fillcolor="#e5813965"] ;
23 -> 25 ;
26 [label="entropy = 0.0\nsamples = 3\nvalue = [6.4918, 0.0]\nclass = Died", fillcolor="#e58139ff"] ;
22 -> 26 ;
27 [label="entropy = -0.0\nsamples = 14\nvalue = [17.8525, 0.0]\nclass = Died", fillcolor="#e58139ff"] ;
19 -> 27 ;
28 [label="Fare <= 2.5\nentropy = 0.8222\nsamples = 324\nvalue = [346.5, 119.8421]\nclass = Died", fillcolor="#e58139a7"] ;
0 -> 28 [labeldistance=2.5, labelangle=-45, headlabel="False"] ;
29 [label="TicketBeginLetter <= 0.0\nentropy = 0.7029\nsamples = 232\nvalue = [265.3525, 62.5263]\nclass = Died", fillcolor="#e58139c3"] ;
28 -> 29 ;
30 [label="HasCabin <= 0.0\nentropy = 0.6065\nsamples = 165\nvalue = [193.9426, 33.8684]\nclass = Died", fillcolor="#e58139d2"] ;
29 -> 30 ;
31 [label="AgeGroup <= 3.5\nentropy = 0.6119\nsamples = 161\nvalue = [190.6967, 33.8684]\nclass = Died", fillcolor="#e58139d2"] ;
30 -> 31 ;
32 [label="Pclass <= 2.5\nentropy = 0.6316\nsamples = 153\nvalue = [179.3361, 33.8684]\nclass = Died", fillcolor="#e58139cf"] ;
31 -> 32 ;
33 [label="entropy = 0.7915\nsamples = 27\nvalue = [29.2131, 9.1184]\nclass = Died", fillcolor="#e58139af"] ;
32 -> 33 ;
34 [label="entropy = 0.5882\nsamples = 126\nvalue = [150.123, 24.75]\nclass = Died", fillcolor="#e58139d5"] ;
32 -> 34 ;
35 [label="entropy = 0.0\nsamples = 8\nvalue = [11.3607, 0.0]\nclass = Died", fillcolor="#e58139ff"] ;
31 -> 35 ;
36 [label="entropy = 0.0\nsamples = 4\nvalue = [3.2459, 0.0]\nclass = Died", fillcolor="#e58139ff"] ;
30 -> 36 ;
37 [label="AgeGroup <= 3.5\nentropy = 0.864\nsamples = 67\nvalue = [71.4098, 28.6579]\nclass = Died", fillcolor="#e5813999"] ;
29 -> 37 ;
38 [label="AgeGroup <= 1.5\nentropy = 0.8328\nsamples = 64\nvalue = [68.9754, 24.75]\nclass = Died", fillcolor="#e58139a4"] ;
37 -> 38 ;
39 [label="Pclass <= 2.5\nentropy = 0.9913\nsamples = 11\nvalue = [11.3607, 9.1184]\nclass = Died", fillcolor="#e5813932"] ;
38 -> 39 ;
40 [label="entropy = 0.7909\nsamples = 3\nvalue = [1.623, 5.2105]\nclass = Survived", fillcolor="#399de5b0"] ;
39 -> 40 ;
41 [label="entropy = 0.864\nsamples = 8\nvalue = [9.7377, 3.9079]\nclass = Died", fillcolor="#e5813999"] ;
39 -> 41 ;
42 [label="AgeGroup <= 2.5\nentropy = 0.748\nsamples = 53\nvalue = [57.6148, 15.6316]\nclass = Died", fillcolor="#e58139ba"] ;
38 -> 42 ;
43 [label="entropy = 0.4016\nsamples = 26\nvalue = [30.0246, 2.6053]\nclass = Died", fillcolor="#e58139e9"] ;
42 -> 43 ;
44 [label="entropy = 0.9052\nsamples = 27\nvalue = [27.5902, 13.0263]\nclass = Died", fillcolor="#e5813987"] ;
42 -> 44 ;
45 [label="entropy = 0.9607\nsamples = 3\nvalue = [2.4344, 3.9079]\nclass = Survived", fillcolor="#399de560"] ;
37 -> 45 ;
46 [label="TicketBeginLetter <= 0.0\nentropy = 0.9785\nsamples = 92\nvalue = [81.1475, 57.3158]\nclass = Died", fillcolor="#e581394b"] ;
28 -> 46 ;
47 [label="AgeGroup <= 3.5\nentropy = 0.9987\nsamples = 64\nvalue = [47.877, 52.1053]\nclass = Survived", fillcolor="#399de515"] ;
46 -> 47 ;
48 [label="FamilySize <= 5.0\nentropy = 0.9776\nsamples = 55\nvalue = [36.5164, 52.1053]\nclass = Survived", fillcolor="#399de54c"] ;
47 -> 48 ;
49 [label="HasCabin <= 0.0\nentropy = 0.9607\nsamples = 52\nvalue = [32.459, 52.1053]\nclass = Survived", fillcolor="#399de560"] ;
48 -> 49 ;
50 [label="entropy = 0.9968\nsamples = 21\nvalue = [17.8525, 15.6316]\nclass = Died", fillcolor="#e5813920"] ;
49 -> 50 ;
51 [label="entropy = 0.8634\nsamples = 31\nvalue = [14.6066, 36.4737]\nclass = Survived", fillcolor="#399de599"] ;
49 -> 51 ;
52 [label="entropy = -0.0\nsamples = 3\nvalue = [4.0574, 0.0]\nclass = Died", fillcolor="#e58139ff"] ;
48 -> 52 ;
53 [label="entropy = -0.0\nsamples = 9\nvalue = [11.3607, 0.0]\nclass = Died", fillcolor="#e58139ff"] ;
47 -> 53 ;
54 [label="Fare <= 4.5\nentropy = 0.5721\nsamples = 28\nvalue = [33.2705, 5.2105]\nclass = Died", fillcolor="#e58139d7"] ;
46 -> 54 ;
55 [label="HasCabin <= 0.0\nentropy = 0.3948\nsamples = 24\nvalue = [30.8361, 2.6053]\nclass = Died", fillcolor="#e58139e9"] ;
54 -> 55 ;
56 [label="entropy = 0.0\nsamples = 16\nvalue = [23.5328, 0.0]\nclass = Died", fillcolor="#e58139ff"] ;
55 -> 56 ;
57 [label="Fare <= 3.5\nentropy = 0.8311\nsamples = 8\nvalue = [7.3033, 2.6053]\nclass = Died", fillcolor="#e58139a4"] ;
55 -> 57 ;
58 [label="entropy = 0.9328\nsamples = 3\nvalue = [2.4344, 1.3026]\nclass = Died", fillcolor="#e5813977"] ;
57 -> 58 ;
59 [label="entropy = 0.7435\nsamples = 5\nvalue = [4.8689, 1.3026]\nclass = Died", fillcolor="#e58139bb"] ;
57 -> 59 ;
60 [label="entropy = 0.9992\nsamples = 4\nvalue = [2.4344, 2.6053]\nclass = Survived", fillcolor="#399de511"] ;
54 -> 60 ;
}