digraph Tree {
node [shape=box, style="filled, rounded", color="black", fontname=helvetica] ;
edge [fontname=helvetica] ;
0 [label="YesMr <= 0.0\nentropy = 0.9995\nsamples = 566\nvalue = [436.5738, 459.8289]\nclass = Survived", fillcolor="#399de50d"] ;
1 [label="YesRev <= 0.0\nentropy = 0.7256\nsamples = 236\nvalue = [89.2623, 353.0132]\nclass = Survived", fillcolor="#399de5bf"] ;
0 -> 1 [labeldistance=2.5, labelangle=45, headlabel="True"] ;
2 [label="Fare <= 3.5\nentropy = 0.695\nsamples = 230\nvalue = [81.1475, 353.0132]\nclass = Survived", fillcolor="#399de5c4"] ;
1 -> 2 ;
3 [label="AgeGroup <= 1.5\nentropy = 0.8144\nsamples = 165\nvalue = [75.4672, 224.0526]\nclass = Survived", fillcolor="#399de5a9"] ;
2 -> 3 ;
4 [label="HasCabin <= 0.0\nentropy = 0.6835\nsamples = 66\nvalue = [21.0984, 95.0921]\nclass = Survived", fillcolor="#399de5c6"] ;
3 -> 4 ;
5 [label="entropy = 0.7393\nsamples = 58\nvalue = [20.2869, 76.8553]\nclass = Survived", fillcolor="#399de5bc"] ;
4 -> 5 ;
6 [label="entropy = 0.2541\nsamples = 8\nvalue = [0.8115, 18.2368]\nclass = Survived", fillcolor="#399de5f4"] ;
4 -> 6 ;
7 [label="Fare <= 2.5\nentropy = 0.877\nsamples = 99\nvalue = [54.3689, 128.9605]\nclass = Survived", fillcolor="#399de593"] ;
3 -> 7 ;
8 [label="entropy = 0.7648\nsamples = 71\nvalue = [27.5902, 96.3947]\nclass = Survived", fillcolor="#399de5b6"] ;
7 -> 8 ;
9 [label="entropy = 0.9931\nsamples = 28\nvalue = [26.7787, 32.5658]\nclass = Survived", fillcolor="#399de52d"] ;
7 -> 9 ;
10 [label="FamilySize <= 8.5\nentropy = 0.2522\nsamples = 65\nvalue = [5.6803, 128.9605]\nclass = Survived", fillcolor="#399de5f4"] ;
2 -> 10 ;
11 [label="entropy = 0.0\nsamples = 61\nvalue = [0.0, 128.9605]\nclass = Survived", fillcolor="#399de5ff"] ;
10 -> 11 ;
12 [label="entropy = 0.0\nsamples = 4\nvalue = [5.6803, 0.0]\nclass = Died", fillcolor="#e58139ff"] ;
10 -> 12 ;
13 [label="entropy = 0.0\nsamples = 6\nvalue = [8.1148, 0.0]\nclass = Died", fillcolor="#e58139ff"] ;
1 -> 13 ;
14 [label="Pclass <= 1.5\nentropy = 0.787\nsamples = 330\nvalue = [347.3115, 106.8158]\nclass = Died", fillcolor="#e58139b1"] ;
0 -> 14 [labeldistance=2.5, labelangle=-45, headlabel="False"] ;
15 [label="AgeGroup <= 3.5\nentropy = 0.9992\nsamples = 63\nvalue = [54.3689, 50.8026]\nclass = Died", fillcolor="#e5813911"] ;
14 -> 15 ;
16 [label="Fare <= 1.5\nentropy = 0.995\nsamples = 52\nvalue = [43.0082, 50.8026]\nclass = Survived", fillcolor="#399de527"] ;
15 -> 16 ;
17 [label="entropy = 0.0\nsamples = 3\nvalue = [2.4344, 0.0]\nclass = Died", fillcolor="#e58139ff"] ;
16 -> 17 ;
18 [label="AgeGroup <= 2.5\nentropy = 0.9909\nsamples = 49\nvalue = [40.5738, 50.8026]\nclass = Survived", fillcolor="#399de533"] ;
16 -> 18 ;
19 [label="entropy = 0.9976\nsamples = 20\nvalue = [21.9098, 19.5395]\nclass = Died", fillcolor="#e581391c"] ;
18 -> 19 ;
20 [label="entropy = 0.9536\nsamples = 29\nvalue = [18.6639, 31.2632]\nclass = Survived", fillcolor="#399de567"] ;
18 -> 20 ;
21 [label="entropy = -0.0\nsamples = 11\nvalue = [11.3607, 0.0]\nclass = Died", fillcolor="#e58139ff"] ;
15 -> 21 ;
22 [label="EmbarkIsS <= 0.0\nentropy = 0.6355\nsamples = 267\nvalue = [292.9426, 56.0132]\nclass = Died", fillcolor="#e58139ce"] ;
14 -> 22 ;
23 [label="FamilySize <= 1.5\nentropy = 0.7027\nsamples = 59\nvalue = [60.8607, 14.3289]\nclass = Died", fillcolor="#e58139c3"] ;
22 -> 23 ;
24 [label="AgeGroup <= 2.5\nentropy = 0.7582\nsamples = 48\nvalue = [51.123, 14.3289]\nclass = Died", fillcolor="#e58139b8"] ;
23 -> 24 ;
25 [label="entropy = 0.977\nsamples = 22\nvalue = [18.6639, 13.0263]\nclass = Died", fillcolor="#e581394d"] ;
24 -> 25 ;
26 [label="entropy = 0.2358\nsamples = 26\nvalue = [32.459, 1.3026]\nclass = Died", fillcolor="#e58139f5"] ;
24 -> 26 ;
27 [label="entropy = -0.0\nsamples = 11\nvalue = [9.7377, 0.0]\nclass = Died", fillcolor="#e58139ff"] ;
23 -> 27 ;
28 [label="FamilySize <= 2.5\nentropy = 0.6155\nsamples = 208\nvalue = [232.082, 41.6842]\nclass = Died", fillcolor="#e58139d1"] ;
22 -> 28 ;
29 [label="AgeGroup <= 2.5\nentropy = 0.6523\nsamples = 188\nvalue = [206.9262, 41.6842]\nclass = Died", fillcolor="#e58139cc"] ;
28 -> 29 ;
30 [label="entropy = 0.5409\nsamples = 97\nvalue = [110.3607, 15.6316]\nclass = Died", fillcolor="#e58139db"] ;
29 -> 30 ;
31 [label="entropy = 0.7462\nsamples = 91\nvalue = [96.5656, 26.0526]\nclass = Died", fillcolor="#e58139ba"] ;
29 -> 31 ;
32 [label="entropy = 0.0\nsamples = 20\nvalue = [25.1557, 0.0]\nclass = Died", fillcolor="#e58139ff"] ;
28 -> 32 ;
}