digraph Tree {
node [shape=box, style="filled, rounded", color="black", fontname=helvetica] ;
edge [fontname=helvetica] ;
0 [label="Fare <= 3.5\nentropy = 0.9997\nsamples = 558\nvalue = [452.8033, 433.7763]\nclass = Died", fillcolor="#e581390b"] ;
1 [label="YesMr <= 0.0\nentropy = 0.9785\nsamples = 465\nvalue = [411.418, 290.4868]\nclass = Died", fillcolor="#e581394b"] ;
0 -> 1 [labeldistance=2.5, labelangle=45, headlabel="True"] ;
2 [label="HasCabin <= 0.0\nentropy = 0.8478\nsamples = 170\nvalue = [80.3361, 212.3289]\nclass = Survived", fillcolor="#399de59f"] ;
1 -> 2 ;
3 [label="FamilySize <= 4.5\nentropy = 0.8849\nsamples = 150\nvalue = [78.7131, 181.0658]\nclass = Survived", fillcolor="#399de590"] ;
2 -> 3 ;
4 [label="AgeGroup <= 0.5\nentropy = 0.759\nsamples = 121\nvalue = [48.6885, 173.25]\nclass = Survived", fillcolor="#399de5b7"] ;
3 -> 4 ;
5 [label="entropy = 0.0\nsamples = 18\nvalue = [0.0, 31.2632]\nclass = Survived", fillcolor="#399de5ff"] ;
4 -> 5 ;
6 [label="Gender <= 0.0\nentropy = 0.8196\nsamples = 103\nvalue = [48.6885, 141.9868]\nclass = Survived", fillcolor="#399de5a8"] ;
4 -> 6 ;
7 [label="entropy = 0.7357\nsamples = 93\nvalue = [35.7049, 136.7763]\nclass = Survived", fillcolor="#399de5bc"] ;
6 -> 7 ;
8 [label="entropy = 0.864\nsamples = 10\nvalue = [12.9836, 5.2105]\nclass = Died", fillcolor="#e5813999"] ;
6 -> 8 ;
9 [label="Pclass <= 2.5\nentropy = 0.7348\nsamples = 29\nvalue = [30.0246, 7.8158]\nclass = Died", fillcolor="#e58139bd"] ;
3 -> 9 ;
10 [label="entropy = 0.0\nsamples = 2\nvalue = [0.0, 2.6053]\nclass = Survived", fillcolor="#399de5ff"] ;
9 -> 10 ;
11 [label="TicketBeginLetter <= 0.0\nentropy = 0.6045\nsamples = 27\nvalue = [30.0246, 5.2105]\nclass = Died", fillcolor="#e58139d3"] ;
9 -> 11 ;
12 [label="entropy = 0.6719\nsamples = 22\nvalue = [24.3443, 5.2105]\nclass = Died", fillcolor="#e58139c8"] ;
11 -> 12 ;
13 [label="entropy = 0.0\nsamples = 5\nvalue = [5.6803, 0.0]\nclass = Died", fillcolor="#e58139ff"] ;
11 -> 13 ;
14 [label="AgeGroup <= 2.5\nentropy = 0.2836\nsamples = 20\nvalue = [1.623, 31.2632]\nclass = Survived", fillcolor="#399de5f2"] ;
2 -> 14 ;
15 [label="entropy = 0.0\nsamples = 13\nvalue = [0.0, 22.1447]\nclass = Survived", fillcolor="#399de5ff"] ;
14 -> 15 ;
16 [label="YesFancy <= 0.0\nentropy = 0.6126\nsamples = 7\nvalue = [1.623, 9.1184]\nclass = Survived", fillcolor="#399de5d2"] ;
14 -> 16 ;
17 [label="entropy = 0.5703\nsamples = 4\nvalue = [0.8115, 5.2105]\nclass = Survived", fillcolor="#399de5d7"] ;
16 -> 17 ;
18 [label="entropy = 0.6621\nsamples = 3\nvalue = [0.8115, 3.9079]\nclass = Survived", fillcolor="#399de5ca"] ;
16 -> 18 ;
19 [label="Pclass <= 1.5\nentropy = 0.7035\nsamples = 295\nvalue = [331.082, 78.1579]\nclass = Died", fillcolor="#e58139c3"] ;
1 -> 19 ;
20 [label="EmbarkIsC <= 0.0\nentropy = 0.9945\nsamples = 41\nvalue = [35.7049, 29.9605]\nclass = Died", fillcolor="#e5813929"] ;
19 -> 20 ;
21 [label="AgeGroup <= 1.5\nentropy = 0.9971\nsamples = 31\nvalue = [25.1557, 22.1447]\nclass = Died", fillcolor="#e581391f"] ;
20 -> 21 ;
22 [label="entropy = 0.0\nsamples = 2\nvalue = [0.0, 7.8158]\nclass = Survived", fillcolor="#399de5ff"] ;
21 -> 22 ;
23 [label="HasCabin <= 0.0\nentropy = 0.9451\nsamples = 29\nvalue = [25.1557, 14.3289]\nclass = Died", fillcolor="#e581396e"] ;
21 -> 23 ;
24 [label="entropy = 0.0\nsamples = 4\nvalue = [3.2459, 0.0]\nclass = Died", fillcolor="#e58139ff"] ;
23 -> 24 ;
25 [label="entropy = 0.9682\nsamples = 25\nvalue = [21.9098, 14.3289]\nclass = Died", fillcolor="#e5813958"] ;
23 -> 25 ;
26 [label="AgeGroup <= 3.5\nentropy = 0.984\nsamples = 10\nvalue = [10.5492, 7.8158]\nclass = Died", fillcolor="#e5813942"] ;
20 -> 26 ;
27 [label="TicketBeginLetter <= 0.0\nentropy = 0.9607\nsamples = 6\nvalue = [4.8689, 7.8158]\nclass = Survived", fillcolor="#399de560"] ;
26 -> 27 ;
28 [label="entropy = 0.0\nsamples = 3\nvalue = [0.0, 7.8158]\nclass = Survived", fillcolor="#399de5ff"] ;
27 -> 28 ;
29 [label="entropy = 0.0\nsamples = 3\nvalue = [4.8689, 0.0]\nclass = Died", fillcolor="#e58139ff"] ;
27 -> 29 ;
30 [label="entropy = -0.0\nsamples = 4\nvalue = [5.6803, 0.0]\nclass = Died", fillcolor="#e58139ff"] ;
26 -> 30 ;
31 [label="EmbarkIsS <= 0.0\nentropy = 0.585\nsamples = 254\nvalue = [295.377, 48.1974]\nclass = Died", fillcolor="#e58139d5"] ;
19 -> 31 ;
32 [label="AgeGroup <= 2.5\nentropy = 0.6337\nsamples = 55\nvalue = [61.6721, 11.7237]\nclass = Died", fillcolor="#e58139cf"] ;
31 -> 32 ;
33 [label="EmbarkIsC <= 0.0\nentropy = 0.8566\nsamples = 28\nvalue = [30.0246, 11.7237]\nclass = Died", fillcolor="#e581399b"] ;
32 -> 33 ;
34 [label="entropy = 0.864\nsamples = 10\nvalue = [9.7377, 3.9079]\nclass = Died", fillcolor="#e5813999"] ;
33 -> 34 ;
35 [label="entropy = 0.8529\nsamples = 18\nvalue = [20.2869, 7.8158]\nclass = Died", fillcolor="#e581399d"] ;
33 -> 35 ;
36 [label="entropy = -0.0\nsamples = 27\nvalue = [31.6475, 0.0]\nclass = Died", fillcolor="#e58139ff"] ;
32 -> 36 ;
37 [label="TicketBeginLetter <= 0.0\nentropy = 0.571\nsamples = 199\nvalue = [233.7049, 36.4737]\nclass = Died", fillcolor="#e58139d7"] ;
31 -> 37 ;
38 [label="Pclass <= 2.5\nentropy = 0.4766\nsamples = 138\nvalue = [171.2213, 19.5395]\nclass = Died", fillcolor="#e58139e2"] ;
37 -> 38 ;
39 [label="entropy = 0.7383\nsamples = 38\nvalue = [49.5, 13.0263]\nclass = Died", fillcolor="#e58139bc"] ;
38 -> 39 ;
40 [label="entropy = 0.2897\nsamples = 100\nvalue = [121.7213, 6.5132]\nclass = Died", fillcolor="#e58139f1"] ;
38 -> 40 ;
41 [label="Fare <= 1.5\nentropy = 0.7476\nsamples = 61\nvalue = [62.4836, 16.9342]\nclass = Died", fillcolor="#e58139ba"] ;
37 -> 41 ;
42 [label="entropy = 0.8763\nsamples = 36\nvalue = [34.082, 14.3289]\nclass = Died", fillcolor="#e5813994"] ;
41 -> 42 ;
43 [label="entropy = 0.4162\nsamples = 25\nvalue = [28.4016, 2.6053]\nclass = Died", fillcolor="#e58139e8"] ;
41 -> 43 ;
44 [label="YesMr <= 0.0\nentropy = 0.7676\nsamples = 93\nvalue = [41.3852, 143.2895]\nclass = Survived", fillcolor="#399de5b5"] ;
0 -> 44 [labeldistance=2.5, labelangle=-45, headlabel="False"] ;
45 [label="FamilySize <= 3.5\nentropy = 0.1936\nsamples = 50\nvalue = [3.2459, 105.5132]\nclass = Survived", fillcolor="#399de5f7"] ;
44 -> 45 ;
46 [label="entropy = 0.0\nsamples = 43\nvalue = [0.0, 100.3026]\nclass = Survived", fillcolor="#399de5ff"] ;
45 -> 46 ;
47 [label="HasCabin <= 0.0\nentropy = 0.9607\nsamples = 7\nvalue = [3.2459, 5.2105]\nclass = Survived", fillcolor="#399de560"] ;
45 -> 47 ;
48 [label="entropy = 0.9607\nsamples = 2\nvalue = [0.8115, 1.3026]\nclass = Survived", fillcolor="#399de560"] ;
47 -> 48 ;
49 [label="AgeGroup <= 0.5\nentropy = 0.9607\nsamples = 5\nvalue = [2.4344, 3.9079]\nclass = Survived", fillcolor="#399de560"] ;
47 -> 49 ;
50 [label="entropy = 0.9913\nsamples = 2\nvalue = [1.623, 1.3026]\nclass = Died", fillcolor="#e5813932"] ;
49 -> 50 ;
51 [label="entropy = 0.7909\nsamples = 3\nvalue = [0.8115, 2.6053]\nclass = Survived", fillcolor="#399de5b0"] ;
49 -> 51 ;
52 [label="EmbarkIsC <= 0.0\nentropy = 1.0\nsamples = 43\nvalue = [38.1393, 37.7763]\nclass = Died", fillcolor="#e5813902"] ;
44 -> 52 ;
53 [label="TicketBeginLetter <= 0.0\nentropy = 0.9954\nsamples = 28\nvalue = [25.9672, 22.1447]\nclass = Died", fillcolor="#e5813926"] ;
52 -> 53 ;
54 [label="HasCabin <= 0.0\nentropy = 0.9694\nsamples = 20\nvalue = [14.6066, 22.1447]\nclass = Survived", fillcolor="#399de557"] ;
53 -> 54 ;
55 [label="entropy = 0.6126\nsamples = 5\nvalue = [1.623, 9.1184]\nclass = Survived", fillcolor="#399de5d2"] ;
54 -> 55 ;
56 [label="AgeGroup <= 3.5\nentropy = 1.0\nsamples = 15\nvalue = [12.9836, 13.0263]\nclass = Survived", fillcolor="#399de501"] ;
54 -> 56 ;
57 [label="entropy = 0.9421\nsamples = 11\nvalue = [7.3033, 13.0263]\nclass = Survived", fillcolor="#399de570"] ;
56 -> 57 ;
58 [label="entropy = 0.0\nsamples = 4\nvalue = [5.6803, 0.0]\nclass = Died", fillcolor="#e58139ff"] ;
56 -> 58 ;
59 [label="entropy = -0.0\nsamples = 8\nvalue = [11.3607, 0.0]\nclass = Died", fillcolor="#e58139ff"] ;
53 -> 59 ;
60 [label="FamilySize <= 1.5\nentropy = 0.9888\nsamples = 15\nvalue = [12.1721, 15.6316]\nclass = Survived", fillcolor="#399de538"] ;
52 -> 60 ;
61 [label="entropy = 0.7909\nsamples = 4\nvalue = [1.623, 5.2105]\nclass = Survived", fillcolor="#399de5b0"] ;
60 -> 61 ;
62 [label="entropy = 1.0\nsamples = 11\nvalue = [10.5492, 10.4211]\nclass = Died", fillcolor="#e5813903"] ;
60 -> 62 ;
}