digraph Tree {
node [shape=box, style="filled, rounded", color="black", fontname=helvetica] ;
edge [fontname=helvetica] ;
0 [label="Gender <= 0.0\nentropy = 0.9997\nsamples = 569\nvalue = [452.8033, 433.7763]\nclass = Died", fillcolor="#e581390b"] ;
1 [label="FamilySize <= 4.5\nentropy = 0.6447\nsamples = 203\nvalue = [63.2951, 321.75]\nclass = Survived", fillcolor="#399de5cd"] ;
0 -> 1 [labeldistance=2.5, labelangle=45, headlabel="True"] ;
2 [label="EmbarkIsS <= 0.0\nentropy = 0.5147\nsamples = 180\nvalue = [39.7623, 306.1184]\nclass = Survived", fillcolor="#399de5de"] ;
1 -> 2 ;
3 [label="EmbarkIsC <= 0.0\nentropy = 0.3978\nsamples = 72\nvalue = [11.3607, 132.8684]\nclass = Survived", fillcolor="#399de5e9"] ;
2 -> 3 ;
4 [label="Pclass <= 2.5\nentropy = 0.5292\nsamples = 26\nvalue = [5.6803, 41.6842]\nclass = Survived", fillcolor="#399de5dc"] ;
3 -> 4 ;
5 [label="entropy = 0.0\nsamples = 3\nvalue = [0.0, 6.5132]\nclass = Survived", fillcolor="#399de5ff"] ;
4 -> 5 ;
6 [label="entropy = 0.5817\nsamples = 23\nvalue = [5.6803, 35.1711]\nclass = Survived", fillcolor="#399de5d6"] ;
4 -> 6 ;
7 [label="Pclass <= 2.5\nentropy = 0.322\nsamples = 46\nvalue = [5.6803, 91.1842]\nclass = Survived", fillcolor="#399de5ef"] ;
3 -> 7 ;
8 [label="AgeGroup <= 3.5\nentropy = 0.1512\nsamples = 32\nvalue = [1.623, 72.9474]\nclass = Survived", fillcolor="#399de5f9"] ;
7 -> 8 ;
9 [label="entropy = 0.0\nsamples = 26\nvalue = [0.0, 63.8289]\nclass = Survived", fillcolor="#399de5ff"] ;
8 -> 9 ;
10 [label="entropy = 0.6126\nsamples = 6\nvalue = [1.623, 9.1184]\nclass = Survived", fillcolor="#399de5d2"] ;
8 -> 10 ;
11 [label="AgeGroup <= 2.5\nentropy = 0.6844\nsamples = 14\nvalue = [4.0574, 18.2368]\nclass = Survived", fillcolor="#399de5c6"] ;
7 -> 11 ;
12 [label="entropy = 0.4745\nsamples = 9\nvalue = [1.623, 14.3289]\nclass = Survived", fillcolor="#399de5e2"] ;
11 -> 12 ;
13 [label="entropy = 0.9607\nsamples = 5\nvalue = [2.4344, 3.9079]\nclass = Survived", fillcolor="#399de560"] ;
11 -> 13 ;
14 [label="YesFancy <= 0.0\nentropy = 0.5864\nsamples = 108\nvalue = [28.4016, 173.25]\nclass = Survived", fillcolor="#399de5d5"] ;
2 -> 14 ;
15 [label="AgeGroup <= 0.5\nentropy = 0.5937\nsamples = 106\nvalue = [28.4016, 169.3421]\nclass = Survived", fillcolor="#399de5d4"] ;
14 -> 15 ;
16 [label="entropy = 0.0\nsamples = 5\nvalue = [0.0, 9.1184]\nclass = Survived", fillcolor="#399de5ff"] ;
15 -> 16 ;
17 [label="HasCabin <= 0.0\nentropy = 0.6113\nsamples = 101\nvalue = [28.4016, 160.2237]\nclass = Survived", fillcolor="#399de5d2"] ;
15 -> 17 ;
18 [label="entropy = 0.7124\nsamples = 66\nvalue = [24.3443, 100.3026]\nclass = Survived", fillcolor="#399de5c1"] ;
17 -> 18 ;
19 [label="entropy = 0.3409\nsamples = 35\nvalue = [4.0574, 59.9211]\nclass = Survived", fillcolor="#399de5ee"] ;
17 -> 19 ;
20 [label="entropy = 0.0\nsamples = 2\nvalue = [0.0, 3.9079]\nclass = Survived", fillcolor="#399de5ff"] ;
14 -> 20 ;
21 [label="HasCabin <= 0.0\nentropy = 0.9704\nsamples = 23\nvalue = [23.5328, 15.6316]\nclass = Died", fillcolor="#e5813956"] ;
1 -> 21 ;
22 [label="TicketBeginLetter <= 0.0\nentropy = 0.8896\nsamples = 21\nvalue = [23.5328, 10.4211]\nclass = Died", fillcolor="#e581398e"] ;
21 -> 22 ;
23 [label="entropy = 0.9577\nsamples = 17\nvalue = [17.041, 10.4211]\nclass = Died", fillcolor="#e5813963"] ;
22 -> 23 ;
24 [label="entropy = 0.0\nsamples = 4\nvalue = [6.4918, 0.0]\nclass = Died", fillcolor="#e58139ff"] ;
22 -> 24 ;
25 [label="entropy = 0.0\nsamples = 2\nvalue = [0.0, 5.2105]\nclass = Survived", fillcolor="#399de5ff"] ;
21 -> 25 ;
26 [label="AgeGroup <= 3.5\nentropy = 0.7663\nsamples = 366\nvalue = [389.5082, 112.0263]\nclass = Died", fillcolor="#e58139b6"] ;
0 -> 26 [labeldistance=2.5, labelangle=-45, headlabel="False"] ;
27 [label="Pclass <= 1.5\nentropy = 0.7937\nsamples = 332\nvalue = [352.1803, 110.7237]\nclass = Died", fillcolor="#e58139af"] ;
26 -> 27 ;
28 [label="YesMaster <= 0.0\nentropy = 0.993\nsamples = 59\nvalue = [47.0656, 57.3158]\nclass = Survived", fillcolor="#399de52e"] ;
27 -> 28 ;
29 [label="Fare <= 1.5\nentropy = 0.9995\nsamples = 57\nvalue = [47.0656, 49.5]\nclass = Survived", fillcolor="#399de50d"] ;
28 -> 29 ;
30 [label="entropy = 0.0\nsamples = 4\nvalue = [6.4918, 0.0]\nclass = Died", fillcolor="#e58139ff"] ;
29 -> 30 ;
31 [label="YesFancy <= 0.0\nentropy = 0.9929\nsamples = 53\nvalue = [40.5738, 49.5]\nclass = Survived", fillcolor="#399de52e"] ;
29 -> 31 ;
32 [label="entropy = 0.996\nsamples = 51\nvalue = [38.1393, 44.2895]\nclass = Survived", fillcolor="#399de523"] ;
31 -> 32 ;
33 [label="entropy = 0.9027\nsamples = 2\nvalue = [2.4344, 5.2105]\nclass = Survived", fillcolor="#399de588"] ;
31 -> 33 ;
34 [label="entropy = 0.0\nsamples = 2\nvalue = [0.0, 7.8158]\nclass = Survived", fillcolor="#399de5ff"] ;
28 -> 34 ;
35 [label="EmbarkIsS <= 0.0\nentropy = 0.6072\nsamples = 273\nvalue = [305.1148, 53.4079]\nclass = Died", fillcolor="#e58139d2"] ;
27 -> 35 ;
36 [label="EmbarkIsC <= 0.0\nentropy = 0.8311\nsamples = 64\nvalue = [65.7295, 23.4474]\nclass = Died", fillcolor="#e58139a4"] ;
35 -> 36 ;
37 [label="YesMr <= 0.0\nentropy = 0.8102\nsamples = 26\nvalue = [23.5328, 7.8158]\nclass = Died", fillcolor="#e58139aa"] ;
36 -> 37 ;
38 [label="entropy = 0.0\nsamples = 2\nvalue = [1.623, 0.0]\nclass = Died", fillcolor="#e58139ff"] ;
37 -> 38 ;
39 [label="entropy = 0.8311\nsamples = 24\nvalue = [21.9098, 7.8158]\nclass = Died", fillcolor="#e58139a4"] ;
37 -> 39 ;
40 [label="YesMaster <= 0.0\nentropy = 0.8419\nsamples = 38\nvalue = [42.1967, 15.6316]\nclass = Died", fillcolor="#e58139a1"] ;
36 -> 40 ;
41 [label="entropy = 0.7554\nsamples = 36\nvalue = [42.1967, 11.7237]\nclass = Died", fillcolor="#e58139b8"] ;
40 -> 41 ;
42 [label="entropy = 0.0\nsamples = 2\nvalue = [0.0, 3.9079]\nclass = Survived", fillcolor="#399de5ff"] ;
40 -> 42 ;
43 [label="TicketBeginLetter <= 0.0\nentropy = 0.5036\nsamples = 209\nvalue = [239.3852, 29.9605]\nclass = Died", fillcolor="#e58139df"] ;
35 -> 43 ;
44 [label="YesMaster <= 0.0\nentropy = 0.468\nsamples = 145\nvalue = [164.7295, 18.2368]\nclass = Died", fillcolor="#e58139e3"] ;
43 -> 44 ;
45 [label="entropy = 0.3621\nsamples = 134\nvalue = [158.2377, 11.7237]\nclass = Died", fillcolor="#e58139ec"] ;
44 -> 45 ;
46 [label="entropy = 1.0\nsamples = 11\nvalue = [6.4918, 6.5132]\nclass = Survived", fillcolor="#399de501"] ;
44 -> 46 ;
47 [label="AgeGroup <= 1.5\nentropy = 0.5729\nsamples = 64\nvalue = [74.6557, 11.7237]\nclass = Died", fillcolor="#e58139d7"] ;
43 -> 47 ;
48 [label="entropy = 0.9213\nsamples = 17\nvalue = [15.418, 7.8158]\nclass = Died", fillcolor="#e581397e"] ;
47 -> 48 ;
49 [label="entropy = 0.3349\nsamples = 47\nvalue = [59.2377, 3.9079]\nclass = Died", fillcolor="#e58139ee"] ;
47 -> 49 ;
50 [label="YesFancy <= 0.0\nentropy = 0.2127\nsamples = 34\nvalue = [37.3279, 1.3026]\nclass = Died", fillcolor="#e58139f6"] ;
26 -> 50 ;
51 [label="entropy = 0.0\nsamples = 29\nvalue = [30.8361, 0.0]\nclass = Died", fillcolor="#e58139ff"] ;
50 -> 51 ;
52 [label="FamilySize <= 1.5\nentropy = 0.6511\nsamples = 5\nvalue = [6.4918, 1.3026]\nclass = Died", fillcolor="#e58139cc"] ;
50 -> 52 ;
53 [label="entropy = 0.8\nsamples = 3\nvalue = [4.0574, 1.3026]\nclass = Died", fillcolor="#e58139ad"] ;
52 -> 53 ;
54 [label="entropy = 0.0\nsamples = 2\nvalue = [2.4344, 0.0]\nclass = Died", fillcolor="#e58139ff"] ;
52 -> 54 ;
}