digraph Tree {
node [shape=box, style="filled, rounded", color="black", fontname=helvetica] ;
edge [fontname=helvetica] ;
0 [label="Pclass <= 1.5\nentropy = 0.9999\nsamples = 561\nvalue = [448.7459, 440.2895]\nclass = Died", fillcolor="#e5813905"] ;
1 [label="YesMiss <= 0.0\nentropy = 0.8196\nsamples = 146\nvalue = [66.541, 194.0921]\nclass = Survived", fillcolor="#399de5a8"] ;
0 -> 1 [labeldistance=2.5, labelangle=45, headlabel="True"] ;
2 [label="HasCabin <= 0.0\nentropy = 0.9305\nsamples = 111\nvalue = [64.1066, 121.1447]\nclass = Survived", fillcolor="#399de578"] ;
1 -> 2 ;
3 [label="EmbarkIsS <= 0.0\nentropy = 0.962\nsamples = 22\nvalue = [18.6639, 11.7237]\nclass = Died", fillcolor="#e581395f"] ;
2 -> 3 ;
4 [label="FamilySize <= 1.5\nentropy = 0.478\nsamples = 8\nvalue = [11.3607, 1.3026]\nclass = Died", fillcolor="#e58139e2"] ;
3 -> 4 ;
5 [label="entropy = 0.0\nsamples = 6\nvalue = [9.7377, 0.0]\nclass = Died", fillcolor="#e58139ff"] ;
4 -> 5 ;
6 [label="entropy = 0.9913\nsamples = 2\nvalue = [1.623, 1.3026]\nclass = Died", fillcolor="#e5813932"] ;
4 -> 6 ;
7 [label="YesMr <= 0.0\nentropy = 0.9776\nsamples = 14\nvalue = [7.3033, 10.4211]\nclass = Survived", fillcolor="#399de54c"] ;
3 -> 7 ;
8 [label="entropy = 0.5703\nsamples = 4\nvalue = [0.8115, 5.2105]\nclass = Survived", fillcolor="#399de5d7"] ;
7 -> 8 ;
9 [label="entropy = 0.9913\nsamples = 10\nvalue = [6.4918, 5.2105]\nclass = Died", fillcolor="#e5813932"] ;
7 -> 9 ;
10 [label="AgeGroup <= 3.5\nentropy = 0.8731\nsamples = 89\nvalue = [45.4426, 109.4211]\nclass = Survived", fillcolor="#399de595"] ;
2 -> 10 ;
11 [label="Gender <= 0.0\nentropy = 0.7909\nsamples = 68\nvalue = [29.2131, 93.7895]\nclass = Survived", fillcolor="#399de5b0"] ;
10 -> 11 ;
12 [label="entropy = 0.0\nsamples = 21\nvalue = [0.0, 42.9868]\nclass = Survived", fillcolor="#399de5ff"] ;
11 -> 12 ;
13 [label="YesMr <= 0.0\nentropy = 0.9468\nsamples = 47\nvalue = [29.2131, 50.8026]\nclass = Survived", fillcolor="#399de56c"] ;
11 -> 13 ;
14 [label="entropy = 0.5023\nsamples = 4\nvalue = [0.8115, 6.5132]\nclass = Survived", fillcolor="#399de5df"] ;
13 -> 14 ;
15 [label="EmbarkIsC <= 0.0\nentropy = 0.9653\nsamples = 43\nvalue = [28.4016, 44.2895]\nclass = Survived", fillcolor="#399de55b"] ;
13 -> 15 ;
16 [label="entropy = 0.9992\nsamples = 28\nvalue = [21.9098, 23.4474]\nclass = Survived", fillcolor="#399de511"] ;
15 -> 16 ;
17 [label="entropy = 0.7909\nsamples = 15\nvalue = [6.4918, 20.8421]\nclass = Survived", fillcolor="#399de5b0"] ;
15 -> 17 ;
18 [label="EmbarkIsS <= 0.0\nentropy = 0.9997\nsamples = 21\nvalue = [16.2295, 15.6316]\nclass = Died", fillcolor="#e5813909"] ;
10 -> 18 ;
19 [label="YesMr <= 0.0\nentropy = 0.9496\nsamples = 9\nvalue = [8.9262, 5.2105]\nclass = Died", fillcolor="#e581396a"] ;
18 -> 19 ;
20 [label="entropy = 0.0\nsamples = 3\nvalue = [0.0, 5.2105]\nclass = Survived", fillcolor="#399de5ff"] ;
19 -> 20 ;
21 [label="entropy = -0.0\nsamples = 6\nvalue = [8.9262, 0.0]\nclass = Died", fillcolor="#e58139ff"] ;
19 -> 21 ;
22 [label="Gender <= 0.0\nentropy = 0.9776\nsamples = 12\nvalue = [7.3033, 10.4211]\nclass = Survived", fillcolor="#399de54c"] ;
18 -> 22 ;
23 [label="entropy = 0.0\nsamples = 2\nvalue = [0.0, 3.9079]\nclass = Survived", fillcolor="#399de5ff"] ;
22 -> 23 ;
24 [label="FamilySize <= 1.5\nentropy = 0.9976\nsamples = 10\nvalue = [7.3033, 6.5132]\nclass = Died", fillcolor="#e581391c"] ;
22 -> 24 ;
25 [label="entropy = 0.9607\nsamples = 7\nvalue = [4.0574, 6.5132]\nclass = Survived", fillcolor="#399de560"] ;
24 -> 25 ;
26 [label="entropy = -0.0\nsamples = 3\nvalue = [3.2459, 0.0]\nclass = Died", fillcolor="#e58139ff"] ;
24 -> 26 ;
27 [label="Fare <= 3.5\nentropy = 0.2058\nsamples = 35\nvalue = [2.4344, 72.9474]\nclass = Survived", fillcolor="#399de5f6"] ;
1 -> 27 ;
28 [label="AgeGroup <= 3.5\nentropy = 0.5703\nsamples = 7\nvalue = [1.623, 10.4211]\nclass = Survived", fillcolor="#399de5d7"] ;
27 -> 28 ;
29 [label="entropy = 0.0\nsamples = 5\nvalue = [0.0, 9.1184]\nclass = Survived", fillcolor="#399de5ff"] ;
28 -> 29 ;
30 [label="entropy = 0.9913\nsamples = 2\nvalue = [1.623, 1.3026]\nclass = Died", fillcolor="#e5813932"] ;
28 -> 30 ;
31 [label="EmbarkIsC <= 0.0\nentropy = 0.0989\nsamples = 28\nvalue = [0.8115, 62.5263]\nclass = Survived", fillcolor="#399de5fc"] ;
27 -> 31 ;
32 [label="AgeGroup <= 1.5\nentropy = 0.1702\nsamples = 13\nvalue = [0.8115, 31.2632]\nclass = Survived", fillcolor="#399de5f8"] ;
31 -> 32 ;
33 [label="entropy = 0.7909\nsamples = 2\nvalue = [0.8115, 2.6053]\nclass = Survived", fillcolor="#399de5b0"] ;
32 -> 33 ;
34 [label="entropy = 0.0\nsamples = 11\nvalue = [0.0, 28.6579]\nclass = Survived", fillcolor="#399de5ff"] ;
32 -> 34 ;
35 [label="entropy = -0.0\nsamples = 15\nvalue = [0.0, 31.2632]\nclass = Survived", fillcolor="#399de5ff"] ;
31 -> 35 ;
36 [label="Gender <= 0.0\nentropy = 0.9659\nsamples = 415\nvalue = [382.2049, 246.1974]\nclass = Died", fillcolor="#e581395b"] ;
0 -> 36 [labeldistance=2.5, labelangle=-45, headlabel="False"] ;
37 [label="FamilySize <= 4.5\nentropy = 0.7998\nsamples = 132\nvalue = [55.9918, 174.5526]\nclass = Survived", fillcolor="#399de5ad"] ;
36 -> 37 ;
38 [label="AgeGroup <= 1.5\nentropy = 0.701\nsamples = 118\nvalue = [40.5738, 173.25]\nclass = Survived", fillcolor="#399de5c3"] ;
37 -> 38 ;
39 [label="YesMiss <= 0.0\nentropy = 0.4211\nsamples = 33\nvalue = [4.8689, 52.1053]\nclass = Survived", fillcolor="#399de5e7"] ;
38 -> 39 ;
40 [label="entropy = 0.0\nsamples = 5\nvalue = [0.0, 9.1184]\nclass = Survived", fillcolor="#399de5ff"] ;
39 -> 40 ;
41 [label="AgeGroup <= 0.5\nentropy = 0.4745\nsamples = 28\nvalue = [4.8689, 42.9868]\nclass = Survived", fillcolor="#399de5e2"] ;
39 -> 41 ;
42 [label="FamilySize <= 2.5\nentropy = 0.2205\nsamples = 11\nvalue = [0.8115, 22.1447]\nclass = Survived", fillcolor="#399de5f6"] ;
41 -> 42 ;
43 [label="entropy = 0.6621\nsamples = 3\nvalue = [0.8115, 3.9079]\nclass = Survived", fillcolor="#399de5ca"] ;
42 -> 43 ;
44 [label="entropy = 0.0\nsamples = 8\nvalue = [0.0, 18.2368]\nclass = Survived", fillcolor="#399de5ff"] ;
42 -> 44 ;
45 [label="EmbarkIsQ <= 0.0\nentropy = 0.6413\nsamples = 17\nvalue = [4.0574, 20.8421]\nclass = Survived", fillcolor="#399de5cd"] ;
41 -> 45 ;
46 [label="entropy = 0.7209\nsamples = 12\nvalue = [3.2459, 13.0263]\nclass = Survived", fillcolor="#399de5bf"] ;
45 -> 46 ;
47 [label="entropy = 0.4499\nsamples = 5\nvalue = [0.8115, 7.8158]\nclass = Survived", fillcolor="#399de5e5"] ;
45 -> 47 ;
48 [label="Fare <= 2.5\nentropy = 0.7739\nsamples = 85\nvalue = [35.7049, 121.1447]\nclass = Survived", fillcolor="#399de5b4"] ;
38 -> 48 ;
49 [label="EmbarkIsC <= 0.0\nentropy = 0.855\nsamples = 70\nvalue = [34.8934, 89.8816]\nclass = Survived", fillcolor="#399de59c"] ;
48 -> 49 ;
50 [label="Pclass <= 2.5\nentropy = 0.8384\nsamples = 61\nvalue = [30.0246, 82.0658]\nclass = Survived", fillcolor="#399de5a2"] ;
49 -> 50 ;
51 [label="entropy = 0.4082\nsamples = 18\nvalue = [2.4344, 27.3553]\nclass = Survived", fillcolor="#399de5e8"] ;
50 -> 51 ;
52 [label="entropy = 0.9202\nsamples = 43\nvalue = [27.5902, 54.7105]\nclass = Survived", fillcolor="#399de57e"] ;
50 -> 52 ;
53 [label="FamilySize <= 2.5\nentropy = 0.9607\nsamples = 9\nvalue = [4.8689, 7.8158]\nclass = Survived", fillcolor="#399de560"] ;
49 -> 53 ;
54 [label="entropy = 0.9655\nsamples = 5\nvalue = [4.0574, 2.6053]\nclass = Died", fillcolor="#e581395b"] ;
53 -> 54 ;
55 [label="entropy = 0.5703\nsamples = 4\nvalue = [0.8115, 5.2105]\nclass = Survived", fillcolor="#399de5d7"] ;
53 -> 55 ;
56 [label="FamilySize <= 2.5\nentropy = 0.1702\nsamples = 15\nvalue = [0.8115, 31.2632]\nclass = Survived", fillcolor="#399de5f8"] ;
48 -> 56 ;
57 [label="entropy = 0.0\nsamples = 6\nvalue = [0.0, 10.4211]\nclass = Survived", fillcolor="#399de5ff"] ;
56 -> 57 ;
58 [label="entropy = 0.2306\nsamples = 9\nvalue = [0.8115, 20.8421]\nclass = Survived", fillcolor="#399de5f5"] ;
56 -> 58 ;
59 [label="Fare <= 2.5\nentropy = 0.3948\nsamples = 14\nvalue = [15.418, 1.3026]\nclass = Died", fillcolor="#e58139e9"] ;
37 -> 59 ;
60 [label="entropy = 0.9913\nsamples = 3\nvalue = [1.623, 1.3026]\nclass = Died", fillcolor="#e5813932"] ;
59 -> 60 ;
61 [label="entropy = 0.0\nsamples = 11\nvalue = [13.7951, 0.0]\nclass = Died", fillcolor="#e58139ff"] ;
59 -> 61 ;
62 [label="AgeGroup <= 0.5\nentropy = 0.6802\nsamples = 283\nvalue = [326.2131, 71.6447]\nclass = Died", fillcolor="#e58139c7"] ;
36 -> 62 ;
63 [label="Fare <= 2.5\nentropy = 0.9396\nsamples = 15\nvalue = [6.4918, 11.7237]\nclass = Survived", fillcolor="#399de572"] ;
62 -> 63 ;
64 [label="entropy = 0.0\nsamples = 4\nvalue = [0.0, 5.2105]\nclass = Survived", fillcolor="#399de5ff"] ;
63 -> 64 ;
65 [label="EmbarkIsQ <= 0.0\nentropy = 1.0\nsamples = 11\nvalue = [6.4918, 6.5132]\nclass = Survived", fillcolor="#399de501"] ;
63 -> 65 ;
66 [label="entropy = 0.9607\nsamples = 9\nvalue = [4.0574, 6.5132]\nclass = Survived", fillcolor="#399de560"] ;
65 -> 66 ;
67 [label="entropy = -0.0\nsamples = 2\nvalue = [2.4344, 0.0]\nclass = Died", fillcolor="#e58139ff"] ;
65 -> 67 ;
68 [label="FamilySize <= 3.5\nentropy = 0.6291\nsamples = 268\nvalue = [319.7213, 59.9211]\nclass = Died", fillcolor="#e58139cf"] ;
62 -> 68 ;
69 [label="YesMr <= 0.0\nentropy = 0.6424\nsamples = 256\nvalue = [306.7377, 59.9211]\nclass = Died", fillcolor="#e58139cd"] ;
68 -> 69 ;
70 [label="EmbarkIsC <= 0.0\nentropy = 0.9463\nsamples = 10\nvalue = [11.3607, 6.5132]\nclass = Died", fillcolor="#e581396d"] ;
69 -> 70 ;
71 [label="entropy = 0.0\nsamples = 7\nvalue = [11.3607, 0.0]\nclass = Died", fillcolor="#e58139ff"] ;
70 -> 71 ;
72 [label="entropy = -0.0\nsamples = 3\nvalue = [0.0, 6.5132]\nclass = Survived", fillcolor="#399de5ff"] ;
70 -> 72 ;
73 [label="Fare <= 3.5\nentropy = 0.6176\nsamples = 246\nvalue = [295.377, 53.4079]\nclass = Died", fillcolor="#e58139d1"] ;
69 -> 73 ;
74 [label="EmbarkIsC <= 0.0\nentropy = 0.5842\nsamples = 238\nvalue = [288.0738, 46.8947]\nclass = Died", fillcolor="#e58139d5"] ;
73 -> 74 ;
75 [label="entropy = 0.56\nsamples = 206\nvalue = [250.7459, 37.7763]\nclass = Died", fillcolor="#e58139d9"] ;
74 -> 75 ;
76 [label="entropy = 0.7145\nsamples = 32\nvalue = [37.3279, 9.1184]\nclass = Died", fillcolor="#e58139c1"] ;
74 -> 76 ;
77 [label="TicketBeginLetter <= 0.0\nentropy = 0.9976\nsamples = 8\nvalue = [7.3033, 6.5132]\nclass = Died", fillcolor="#e581391c"] ;
73 -> 77 ;
78 [label="entropy = 0.9849\nsamples = 5\nvalue = [4.8689, 6.5132]\nclass = Survived", fillcolor="#399de540"] ;
77 -> 78 ;
79 [label="entropy = 0.0\nsamples = 3\nvalue = [2.4344, 0.0]\nclass = Died", fillcolor="#e58139ff"] ;
77 -> 79 ;
80 [label="entropy = 0.0\nsamples = 12\nvalue = [12.9836, 0.0]\nclass = Died", fillcolor="#e58139ff"] ;
68 -> 80 ;
}