digraph Tree {
node [shape=box, style="filled, rounded", color="black", fontname=helvetica] ;
edge [fontname=helvetica] ;
0 [label="YesMr <= 0.0\nentropy = 0.9999\nsamples = 565\nvalue = [442.2541, 450.7105]\nclass = Survived", fillcolor="#399de505"] ;
1 [label="Pclass <= 2.5\nentropy = 0.7825\nsamples = 231\nvalue = [102.2459, 337.3816]\nclass = Survived", fillcolor="#399de5b2"] ;
0 -> 1 [labeldistance=2.5, labelangle=45, headlabel="True"] ;
2 [label="EmbarkIsS <= 0.0\nentropy = 0.4817\nsamples = 125\nvalue = [26.7787, 230.5658]\nclass = Survived", fillcolor="#399de5e1"] ;
1 -> 2 ;
3 [label="Gender <= 0.0\nentropy = 0.2333\nsamples = 36\nvalue = [3.2459, 82.0658]\nclass = Survived", fillcolor="#399de5f5"] ;
2 -> 3 ;
4 [label="entropy = -0.0\nsamples = 31\nvalue = [0.0, 76.8553]\nclass = Survived", fillcolor="#399de5ff"] ;
3 -> 4 ;
5 [label="HasCabin <= 0.0\nentropy = 0.9607\nsamples = 5\nvalue = [3.2459, 5.2105]\nclass = Survived", fillcolor="#399de560"] ;
3 -> 5 ;
6 [label="entropy = 0.0\nsamples = 2\nvalue = [1.623, 0.0]\nclass = Died", fillcolor="#e58139ff"] ;
5 -> 6 ;
7 [label="entropy = 0.7909\nsamples = 3\nvalue = [1.623, 5.2105]\nclass = Survived", fillcolor="#399de5b0"] ;
5 -> 7 ;
8 [label="YesMrs <= 0.0\nentropy = 0.5758\nsamples = 89\nvalue = [23.5328, 148.5]\nclass = Survived", fillcolor="#399de5d7"] ;
2 -> 8 ;
9 [label="Fare <= 2.5\nentropy = 0.7083\nsamples = 50\nvalue = [16.2295, 67.7368]\nclass = Survived", fillcolor="#399de5c2"] ;
8 -> 9 ;
10 [label="HasCabin <= 0.0\nentropy = 0.9726\nsamples = 16\nvalue = [10.5492, 15.6316]\nclass = Survived", fillcolor="#399de553"] ;
9 -> 10 ;
11 [label="TicketBeginLetter <= 0.0\nentropy = 0.998\nsamples = 14\nvalue = [10.5492, 11.7237]\nclass = Survived", fillcolor="#399de51a"] ;
10 -> 11 ;
12 [label="entropy = 0.9992\nsamples = 12\nvalue = [9.7377, 9.1184]\nclass = Died", fillcolor="#e5813910"] ;
11 -> 12 ;
13 [label="entropy = 0.7909\nsamples = 2\nvalue = [0.8115, 2.6053]\nclass = Survived", fillcolor="#399de5b0"] ;
11 -> 13 ;
14 [label="entropy = 0.0\nsamples = 2\nvalue = [0.0, 3.9079]\nclass = Survived", fillcolor="#399de5ff"] ;
10 -> 14 ;
15 [label="YesMiss <= 0.0\nentropy = 0.4636\nsamples = 34\nvalue = [5.6803, 52.1053]\nclass = Survived", fillcolor="#399de5e3"] ;
9 -> 15 ;
16 [label="TicketBeginLetter <= 0.0\nentropy = 0.7909\nsamples = 12\nvalue = [4.0574, 13.0263]\nclass = Survived", fillcolor="#399de5b0"] ;
15 -> 16 ;
17 [label="entropy = 0.8305\nsamples = 9\nvalue = [3.2459, 9.1184]\nclass = Survived", fillcolor="#399de5a4"] ;
16 -> 17 ;
18 [label="entropy = 0.6621\nsamples = 3\nvalue = [0.8115, 3.9079]\nclass = Survived", fillcolor="#399de5ca"] ;
16 -> 18 ;
19 [label="FamilySize <= 3.5\nentropy = 0.2417\nsamples = 22\nvalue = [1.623, 39.0789]\nclass = Survived", fillcolor="#399de5f4"] ;
15 -> 19 ;
20 [label="entropy = -0.0\nsamples = 16\nvalue = [0.0, 29.9605]\nclass = Survived", fillcolor="#399de5ff"] ;
19 -> 20 ;
21 [label="entropy = 0.6126\nsamples = 6\nvalue = [1.623, 9.1184]\nclass = Survived", fillcolor="#399de5d2"] ;
19 -> 21 ;
22 [label="FamilySize <= 2.5\nentropy = 0.4124\nsamples = 39\nvalue = [7.3033, 80.7632]\nclass = Survived", fillcolor="#399de5e8"] ;
8 -> 22 ;
23 [label="FamilySize <= 1.5\nentropy = 0.1954\nsamples = 25\nvalue = [1.623, 52.1053]\nclass = Survived", fillcolor="#399de5f7"] ;
22 -> 23 ;
24 [label="entropy = 0.0\nsamples = 8\nvalue = [0.0, 18.2368]\nclass = Survived", fillcolor="#399de5ff"] ;
23 -> 24 ;
25 [label="Fare <= 3.5\nentropy = 0.268\nsamples = 17\nvalue = [1.623, 33.8684]\nclass = Survived", fillcolor="#399de5f3"] ;
23 -> 25 ;
26 [label="entropy = 0.3595\nsamples = 11\nvalue = [1.623, 22.1447]\nclass = Survived", fillcolor="#399de5ec"] ;
25 -> 26 ;
27 [label="entropy = 0.0\nsamples = 6\nvalue = [0.0, 11.7237]\nclass = Survived", fillcolor="#399de5ff"] ;
25 -> 27 ;
28 [label="Pclass <= 1.5\nentropy = 0.6471\nsamples = 14\nvalue = [5.6803, 28.6579]\nclass = Survived", fillcolor="#399de5cc"] ;
22 -> 28 ;
29 [label="entropy = 0.6126\nsamples = 4\nvalue = [1.623, 9.1184]\nclass = Survived", fillcolor="#399de5d2"] ;
28 -> 29 ;
30 [label="TicketBeginLetter <= 0.0\nentropy = 0.6621\nsamples = 10\nvalue = [4.0574, 19.5395]\nclass = Survived", fillcolor="#399de5ca"] ;
28 -> 30 ;
31 [label="entropy = 0.7614\nsamples = 7\nvalue = [4.0574, 14.3289]\nclass = Survived", fillcolor="#399de5b7"] ;
30 -> 31 ;
32 [label="entropy = 0.0\nsamples = 3\nvalue = [0.0, 5.2105]\nclass = Survived", fillcolor="#399de5ff"] ;
30 -> 32 ;
33 [label="EmbarkIsC <= 0.0\nentropy = 0.9786\nsamples = 106\nvalue = [75.4672, 106.8158]\nclass = Survived", fillcolor="#399de54b"] ;
1 -> 33 ;
34 [label="FamilySize <= 4.0\nentropy = 0.9866\nsamples = 91\nvalue = [67.3525, 88.5789]\nclass = Survived", fillcolor="#399de53d"] ;
33 -> 34 ;
35 [label="EmbarkIsQ <= 0.0\nentropy = 0.904\nsamples = 63\nvalue = [37.3279, 79.4605]\nclass = Survived", fillcolor="#399de587"] ;
34 -> 35 ;
36 [label="Gender <= 0.0\nentropy = 0.9607\nsamples = 44\nvalue = [30.0246, 48.1974]\nclass = Survived", fillcolor="#399de560"] ;
35 -> 36 ;
37 [label="AgeGroup <= 0.5\nentropy = 0.9843\nsamples = 41\nvalue = [30.0246, 40.3816]\nclass = Survived", fillcolor="#399de541"] ;
36 -> 37 ;
38 [label="entropy = 0.0\nsamples = 3\nvalue = [0.0, 5.2105]\nclass = Survived", fillcolor="#399de5ff"] ;
37 -> 38 ;
39 [label="entropy = 0.9955\nsamples = 38\nvalue = [30.0246, 35.1711]\nclass = Survived", fillcolor="#399de525"] ;
37 -> 39 ;
40 [label="entropy = 0.0\nsamples = 3\nvalue = [0.0, 7.8158]\nclass = Survived", fillcolor="#399de5ff"] ;
36 -> 40 ;
41 [label="Fare <= 1.5\nentropy = 0.7001\nsamples = 19\nvalue = [7.3033, 31.2632]\nclass = Survived", fillcolor="#399de5c3"] ;
35 -> 41 ;
42 [label="entropy = 0.6621\nsamples = 16\nvalue = [5.6803, 27.3553]\nclass = Survived", fillcolor="#399de5ca"] ;
41 -> 42 ;
43 [label="entropy = 0.8731\nsamples = 3\nvalue = [1.623, 3.9079]\nclass = Survived", fillcolor="#399de595"] ;
41 -> 43 ;
44 [label="YesMiss <= 0.0\nentropy = 0.7831\nsamples = 28\nvalue = [30.0246, 9.1184]\nclass = Died", fillcolor="#e58139b2"] ;
34 -> 44 ;
45 [label="TicketBeginLetter <= 0.0\nentropy = 0.7615\nsamples = 13\nvalue = [13.7951, 3.9079]\nclass = Died", fillcolor="#e58139b7"] ;
44 -> 45 ;
46 [label="Gender <= 0.0\nentropy = 0.9328\nsamples = 9\nvalue = [7.3033, 3.9079]\nclass = Died", fillcolor="#e5813977"] ;
45 -> 46 ;
47 [label="entropy = 0.9913\nsamples = 3\nvalue = [1.623, 1.3026]\nclass = Died", fillcolor="#e5813932"] ;
46 -> 47 ;
48 [label="entropy = 0.8982\nsamples = 6\nvalue = [5.6803, 2.6053]\nclass = Died", fillcolor="#e581398a"] ;
46 -> 48 ;
49 [label="entropy = 0.0\nsamples = 4\nvalue = [6.4918, 0.0]\nclass = Died", fillcolor="#e58139ff"] ;
45 -> 49 ;
50 [label="Fare <= 2.5\nentropy = 0.8\nsamples = 15\nvalue = [16.2295, 5.2105]\nclass = Died", fillcolor="#e58139ad"] ;
44 -> 50 ;
51 [label="entropy = 0.6621\nsamples = 2\nvalue = [0.8115, 3.9079]\nclass = Survived", fillcolor="#399de5ca"] ;
50 -> 51 ;
52 [label="AgeGroup <= 0.5\nentropy = 0.3948\nsamples = 13\nvalue = [15.418, 1.3026]\nclass = Died", fillcolor="#e58139e9"] ;
50 -> 52 ;
53 [label="entropy = 0.7435\nsamples = 5\nvalue = [4.8689, 1.3026]\nclass = Died", fillcolor="#e58139bb"] ;
52 -> 53 ;
54 [label="entropy = 0.0\nsamples = 8\nvalue = [10.5492, 0.0]\nclass = Died", fillcolor="#e58139ff"] ;
52 -> 54 ;
55 [label="YesMrs <= 0.0\nentropy = 0.8908\nsamples = 15\nvalue = [8.1148, 18.2368]\nclass = Survived", fillcolor="#399de58e"] ;
33 -> 55 ;
56 [label="Fare <= 1.5\nentropy = 0.8731\nsamples = 13\nvalue = [6.4918, 15.6316]\nclass = Survived", fillcolor="#399de595"] ;
55 -> 56 ;
57 [label="entropy = 0.0\nsamples = 2\nvalue = [0.0, 3.9079]\nclass = Survived", fillcolor="#399de5ff"] ;
56 -> 57 ;
58 [label="FamilySize <= 3.5\nentropy = 0.9396\nsamples = 11\nvalue = [6.4918, 11.7237]\nclass = Survived", fillcolor="#399de572"] ;
56 -> 58 ;
59 [label="AgeGroup <= 1.5\nentropy = 1.0\nsamples = 8\nvalue = [6.4918, 6.5132]\nclass = Survived", fillcolor="#399de501"] ;
58 -> 59 ;
60 [label="entropy = 0.9752\nsamples = 6\nvalue = [5.6803, 3.9079]\nclass = Died", fillcolor="#e5813950"] ;
59 -> 60 ;
61 [label="entropy = 0.7909\nsamples = 2\nvalue = [0.8115, 2.6053]\nclass = Survived", fillcolor="#399de5b0"] ;
59 -> 61 ;
62 [label="entropy = 0.0\nsamples = 3\nvalue = [0.0, 5.2105]\nclass = Survived", fillcolor="#399de5ff"] ;
58 -> 62 ;
63 [label="entropy = 0.9607\nsamples = 2\nvalue = [1.623, 2.6053]\nclass = Survived", fillcolor="#399de560"] ;
55 -> 63 ;
64 [label="Pclass <= 1.5\nentropy = 0.8113\nsamples = 334\nvalue = [340.0082, 113.3289]\nclass = Died", fillcolor="#e58139aa"] ;
0 -> 64 [labeldistance=2.5, labelangle=-45, headlabel="False"] ;
65 [label="TicketBeginLetter <= 0.0\nentropy = 0.9999\nsamples = 67\nvalue = [51.123, 52.1053]\nclass = Survived", fillcolor="#399de505"] ;
64 -> 65 ;
66 [label="Fare <= 4.5\nentropy = 1.0\nsamples = 52\nvalue = [38.1393, 37.7763]\nclass = Died", fillcolor="#e5813902"] ;
65 -> 66 ;
67 [label="AgeGroup <= 3.5\nentropy = 0.9989\nsamples = 48\nvalue = [34.8934, 37.7763]\nclass = Survived", fillcolor="#399de513"] ;
66 -> 67 ;
68 [label="EmbarkIsC <= 0.0\nentropy = 0.98\nsamples = 36\nvalue = [25.1557, 35.1711]\nclass = Survived", fillcolor="#399de549"] ;
67 -> 68 ;
69 [label="FamilySize <= 1.5\nentropy = 0.9915\nsamples = 33\nvalue = [25.1557, 31.2632]\nclass = Survived", fillcolor="#399de532"] ;
68 -> 69 ;
70 [label="entropy = 0.9966\nsamples = 23\nvalue = [17.041, 19.5395]\nclass = Survived", fillcolor="#399de521"] ;
69 -> 70 ;
71 [label="entropy = 0.976\nsamples = 10\nvalue = [8.1148, 11.7237]\nclass = Survived", fillcolor="#399de54e"] ;
69 -> 71 ;
72 [label="entropy = 0.0\nsamples = 3\nvalue = [0.0, 3.9079]\nclass = Survived", fillcolor="#399de5ff"] ;
68 -> 72 ;
73 [label="EmbarkIsC <= 0.0\nentropy = 0.7435\nsamples = 12\nvalue = [9.7377, 2.6053]\nclass = Died", fillcolor="#e58139bb"] ;
67 -> 73 ;
74 [label="Fare <= 3.5\nentropy = 0.8\nsamples = 10\nvalue = [8.1148, 2.6053]\nclass = Died", fillcolor="#e58139ad"] ;
73 -> 74 ;
75 [label="entropy = 0.9328\nsamples = 6\nvalue = [4.8689, 2.6053]\nclass = Died", fillcolor="#e5813977"] ;
74 -> 75 ;
76 [label="entropy = 0.0\nsamples = 4\nvalue = [3.2459, 0.0]\nclass = Died", fillcolor="#e58139ff"] ;
74 -> 76 ;
77 [label="entropy = 0.0\nsamples = 2\nvalue = [1.623, 0.0]\nclass = Died", fillcolor="#e58139ff"] ;
73 -> 77 ;
78 [label="entropy = 0.0\nsamples = 4\nvalue = [3.2459, 0.0]\nclass = Died", fillcolor="#e58139ff"] ;
66 -> 78 ;
79 [label="AgeGroup <= 1.5\nentropy = 0.9982\nsamples = 15\nvalue = [12.9836, 14.3289]\nclass = Survived", fillcolor="#399de518"] ;
65 -> 79 ;
80 [label="entropy = 0.0\nsamples = 2\nvalue = [1.623, 0.0]\nclass = Died", fillcolor="#e58139ff"] ;
79 -> 80 ;
81 [label="entropy = 0.9903\nsamples = 13\nvalue = [11.3607, 14.3289]\nclass = Survived", fillcolor="#399de535"] ;
79 -> 81 ;
82 [label="TicketBeginLetter <= 0.0\nentropy = 0.6687\nsamples = 267\nvalue = [288.8852, 61.2237]\nclass = Died", fillcolor="#e58139c9"] ;
64 -> 82 ;
83 [label="Fare <= 3.5\nentropy = 0.6339\nsamples = 198\nvalue = [219.0984, 41.6842]\nclass = Died", fillcolor="#e58139ce"] ;
82 -> 83 ;
84 [label="FamilySize <= 1.5\nentropy = 0.5604\nsamples = 192\nvalue = [215.8525, 32.5658]\nclass = Died", fillcolor="#e58139d9"] ;
83 -> 84 ;
85 [label="EmbarkIsC <= 0.0\nentropy = 0.5126\nsamples = 159\nvalue = [181.7705, 23.4474]\nclass = Died", fillcolor="#e58139de"] ;
84 -> 85 ;
86 [label="Fare <= 2.5\nentropy = 0.4672\nsamples = 135\nvalue = [153.3689, 16.9342]\nclass = Died", fillcolor="#e58139e3"] ;
85 -> 86 ;
87 [label="entropy = 0.4796\nsamples = 131\nvalue = [146.877, 16.9342]\nclass = Died", fillcolor="#e58139e2"] ;
86 -> 87 ;
88 [label="entropy = 0.0\nsamples = 4\nvalue = [6.4918, 0.0]\nclass = Died", fillcolor="#e58139ff"] ;
86 -> 88 ;
89 [label="Fare <= 1.5\nentropy = 0.6942\nsamples = 24\nvalue = [28.4016, 6.5132]\nclass = Died", fillcolor="#e58139c5"] ;
85 -> 89 ;
90 [label="entropy = 0.6316\nsamples = 22\nvalue = [27.5902, 5.2105]\nclass = Died", fillcolor="#e58139cf"] ;
89 -> 90 ;
91 [label="entropy = 0.9607\nsamples = 2\nvalue = [0.8115, 1.3026]\nclass = Survived", fillcolor="#399de560"] ;
89 -> 91 ;
92 [label="EmbarkIsS <= 0.0\nentropy = 0.7435\nsamples = 33\nvalue = [34.082, 9.1184]\nclass = Died", fillcolor="#e58139bb"] ;
84 -> 92 ;
93 [label="FamilySize <= 2.5\nentropy = 0.8\nsamples = 8\nvalue = [8.1148, 2.6053]\nclass = Died", fillcolor="#e58139ad"] ;
92 -> 93 ;
94 [label="entropy = 0.0\nsamples = 3\nvalue = [3.2459, 0.0]\nclass = Died", fillcolor="#e58139ff"] ;
93 -> 94 ;
95 [label="entropy = 0.9328\nsamples = 5\nvalue = [4.8689, 2.6053]\nclass = Died", fillcolor="#e5813977"] ;
93 -> 95 ;
96 [label="FamilySize <= 2.5\nentropy = 0.723\nsamples = 25\nvalue = [25.9672, 6.5132]\nclass = Died", fillcolor="#e58139bf"] ;
92 -> 96 ;
97 [label="entropy = 0.8507\nsamples = 16\nvalue = [17.041, 6.5132]\nclass = Died", fillcolor="#e581399e"] ;
96 -> 97 ;
98 [label="entropy = 0.0\nsamples = 9\nvalue = [8.9262, 0.0]\nclass = Died", fillcolor="#e58139ff"] ;
96 -> 98 ;
99 [label="AgeGroup <= 2.5\nentropy = 0.8305\nsamples = 6\nvalue = [3.2459, 9.1184]\nclass = Survived", fillcolor="#399de5a4"] ;
83 -> 99 ;
100 [label="entropy = 0.9913\nsamples = 2\nvalue = [1.623, 1.3026]\nclass = Died", fillcolor="#e5813932"] ;
99 -> 100 ;
101 [label="entropy = 0.6621\nsamples = 4\nvalue = [1.623, 7.8158]\nclass = Survived", fillcolor="#399de5ca"] ;
99 -> 101 ;
102 [label="Fare <= 2.5\nentropy = 0.7579\nsamples = 69\nvalue = [69.7869, 19.5395]\nclass = Died", fillcolor="#e58139b8"] ;
82 -> 102 ;
103 [label="Pclass <= 2.5\nentropy = 0.829\nsamples = 55\nvalue = [55.1803, 19.5395]\nclass = Died", fillcolor="#e58139a5"] ;
102 -> 103 ;
104 [label="EmbarkIsS <= 0.0\nentropy = 0.9098\nsamples = 10\nvalue = [8.1148, 3.9079]\nclass = Died", fillcolor="#e5813984"] ;
103 -> 104 ;
105 [label="entropy = 0.9607\nsamples = 2\nvalue = [0.8115, 1.3026]\nclass = Survived", fillcolor="#399de560"] ;
104 -> 105 ;
106 [label="AgeGroup <= 3.5\nentropy = 0.8311\nsamples = 8\nvalue = [7.3033, 2.6053]\nclass = Died", fillcolor="#e58139a4"] ;
104 -> 106 ;
107 [label="entropy = 0.6511\nsamples = 6\nvalue = [6.4918, 1.3026]\nclass = Died", fillcolor="#e58139cc"] ;
106 -> 107 ;
108 [label="entropy = 0.9607\nsamples = 2\nvalue = [0.8115, 1.3026]\nclass = Survived", fillcolor="#399de560"] ;
106 -> 108 ;
109 [label="entropy = 0.8102\nsamples = 45\nvalue = [47.0656, 15.6316]\nclass = Died", fillcolor="#e58139aa"] ;
103 -> 109 ;
110 [label="entropy = -0.0\nsamples = 14\nvalue = [14.6066, 0.0]\nclass = Died", fillcolor="#e58139ff"] ;
102 -> 110 ;
}