digraph Tree {
node [shape=box, style="filled, rounded", color="black", fontname=helvetica] ;
edge [fontname=helvetica] ;
0 [label="Gender <= 0.0\nentropy = 0.9957\nsamples = 557\nvalue = [418.7213, 488.4868]\nclass = Survived", fillcolor="#399de524"] ;
1 [label="Pclass <= 2.5\nentropy = 0.6021\nsamples = 199\nvalue = [59.2377, 343.8947]\nclass = Survived", fillcolor="#399de5d3"] ;
0 -> 1 [labeldistance=2.5, labelangle=45, headlabel="True"] ;
2 [label="Pclass <= 1.5\nentropy = 0.138\nsamples = 115\nvalue = [4.8689, 246.1974]\nclass = Survived", fillcolor="#399de5fa"] ;
1 -> 2 ;
3 [label="entropy = 0.0\nsamples = 63\nvalue = [0.0, 134.1711]\nclass = Survived", fillcolor="#399de5ff"] ;
2 -> 3 ;
4 [label="EmbarkIsC <= 0.0\nentropy = 0.2498\nsamples = 52\nvalue = [4.8689, 112.0263]\nclass = Survived", fillcolor="#399de5f4"] ;
2 -> 4 ;
5 [label="TicketBeginLetter <= 0.0\nentropy = 0.2632\nsamples = 48\nvalue = [4.8689, 104.2105]\nclass = Survived", fillcolor="#399de5f3"] ;
4 -> 5 ;
6 [label="YesMiss <= 0.0\nentropy = 0.3335\nsamples = 36\nvalue = [4.8689, 74.25]\nclass = Survived", fillcolor="#399de5ee"] ;
5 -> 6 ;
7 [label="FamilySize <= 1.5\nentropy = 0.3526\nsamples = 20\nvalue = [3.2459, 45.5921]\nclass = Survived", fillcolor="#399de5ed"] ;
6 -> 7 ;
8 [label="entropy = 0.0\nsamples = 5\nvalue = [0.0, 9.1184]\nclass = Survived", fillcolor="#399de5ff"] ;
7 -> 8 ;
9 [label="entropy = 0.4082\nsamples = 15\nvalue = [3.2459, 36.4737]\nclass = Survived", fillcolor="#399de5e8"] ;
7 -> 9 ;
10 [label="AgeGroup <= 1.5\nentropy = 0.3015\nsamples = 16\nvalue = [1.623, 28.6579]\nclass = Survived", fillcolor="#399de5f1"] ;
6 -> 10 ;
11 [label="entropy = 0.0\nsamples = 4\nvalue = [0.0, 10.4211]\nclass = Survived", fillcolor="#399de5ff"] ;
10 -> 11 ;
12 [label="entropy = 0.4082\nsamples = 12\nvalue = [1.623, 18.2368]\nclass = Survived", fillcolor="#399de5e8"] ;
10 -> 12 ;
13 [label="entropy = 0.0\nsamples = 12\nvalue = [0.0, 29.9605]\nclass = Survived", fillcolor="#399de5ff"] ;
5 -> 13 ;
14 [label="entropy = 0.0\nsamples = 4\nvalue = [0.0, 7.8158]\nclass = Survived", fillcolor="#399de5ff"] ;
4 -> 14 ;
15 [label="EmbarkIsC <= 0.0\nentropy = 0.9406\nsamples = 84\nvalue = [54.3689, 97.6974]\nclass = Survived", fillcolor="#399de571"] ;
1 -> 15 ;
16 [label="Fare <= 2.5\nentropy = 0.973\nsamples = 70\nvalue = [51.123, 75.5526]\nclass = Survived", fillcolor="#399de552"] ;
15 -> 16 ;
17 [label="FamilySize <= 1.5\nentropy = 0.8539\nsamples = 56\nvalue = [29.2131, 75.5526]\nclass = Survived", fillcolor="#399de59c"] ;
16 -> 17 ;
18 [label="YesMiss <= 0.0\nentropy = 0.6922\nsamples = 30\nvalue = [12.1721, 53.4079]\nclass = Survived", fillcolor="#399de5c5"] ;
17 -> 18 ;
19 [label="entropy = 0.0\nsamples = 2\nvalue = [0.0, 5.2105]\nclass = Survived", fillcolor="#399de5ff"] ;
18 -> 19 ;
20 [label="AgeGroup <= 1.5\nentropy = 0.7252\nsamples = 28\nvalue = [12.1721, 48.1974]\nclass = Survived", fillcolor="#399de5bf"] ;
18 -> 20 ;
21 [label="entropy = 0.346\nsamples = 5\nvalue = [0.8115, 11.7237]\nclass = Survived", fillcolor="#399de5ed"] ;
20 -> 21 ;
22 [label="entropy = 0.7909\nsamples = 23\nvalue = [11.3607, 36.4737]\nclass = Survived", fillcolor="#399de5b0"] ;
20 -> 22 ;
23 [label="AgeGroup <= 2.5\nentropy = 0.9877\nsamples = 26\nvalue = [17.041, 22.1447]\nclass = Survived", fillcolor="#399de53b"] ;
17 -> 23 ;
24 [label="Fare <= 1.5\nentropy = 0.9489\nsamples = 18\nvalue = [11.3607, 19.5395]\nclass = Survived", fillcolor="#399de56b"] ;
23 -> 24 ;
25 [label="entropy = 0.9607\nsamples = 3\nvalue = [1.623, 2.6053]\nclass = Survived", fillcolor="#399de560"] ;
24 -> 25 ;
26 [label="entropy = 0.9468\nsamples = 15\nvalue = [9.7377, 16.9342]\nclass = Survived", fillcolor="#399de56c"] ;
24 -> 26 ;
27 [label="entropy = 0.8982\nsamples = 8\nvalue = [5.6803, 2.6053]\nclass = Died", fillcolor="#e581398a"] ;
23 -> 27 ;
28 [label="entropy = -0.0\nsamples = 14\nvalue = [21.9098, 0.0]\nclass = Died", fillcolor="#e58139ff"] ;
16 -> 28 ;
29 [label="AgeGroup <= 0.5\nentropy = 0.5515\nsamples = 14\nvalue = [3.2459, 22.1447]\nclass = Survived", fillcolor="#399de5da"] ;
15 -> 29 ;
30 [label="entropy = 0.0\nsamples = 4\nvalue = [0.0, 7.8158]\nclass = Survived", fillcolor="#399de5ff"] ;
29 -> 30 ;
31 [label="YesMiss <= 0.0\nentropy = 0.6902\nsamples = 10\nvalue = [3.2459, 14.3289]\nclass = Survived", fillcolor="#399de5c5"] ;
29 -> 31 ;
32 [label="AgeGroup <= 2.5\nentropy = 0.4499\nsamples = 6\nvalue = [0.8115, 7.8158]\nclass = Survived", fillcolor="#399de5e5"] ;
31 -> 32 ;
33 [label="entropy = 0.0\nsamples = 3\nvalue = [0.0, 5.2105]\nclass = Survived", fillcolor="#399de5ff"] ;
32 -> 33 ;
34 [label="entropy = 0.7909\nsamples = 3\nvalue = [0.8115, 2.6053]\nclass = Survived", fillcolor="#399de5b0"] ;
32 -> 34 ;
35 [label="entropy = 0.8444\nsamples = 4\nvalue = [2.4344, 6.5132]\nclass = Survived", fillcolor="#399de5a0"] ;
31 -> 35 ;
36 [label="Pclass <= 1.5\nentropy = 0.8646\nsamples = 358\nvalue = [359.4836, 144.5921]\nclass = Died", fillcolor="#e5813998"] ;
0 -> 36 [labeldistance=2.5, labelangle=-45, headlabel="False"] ;
37 [label="YesFancy <= 0.0\nentropy = 0.9978\nsamples = 71\nvalue = [55.9918, 62.5263]\nclass = Survived", fillcolor="#399de51b"] ;
36 -> 37 ;
38 [label="AgeGroup <= 3.5\nentropy = 0.9966\nsamples = 65\nvalue = [51.123, 58.6184]\nclass = Survived", fillcolor="#399de521"] ;
37 -> 38 ;
39 [label="FamilySize <= 3.5\nentropy = 0.9677\nsamples = 53\nvalue = [36.5164, 56.0132]\nclass = Survived", fillcolor="#399de559"] ;
38 -> 39 ;
40 [label="FamilySize <= 1.5\nentropy = 0.9806\nsamples = 51\nvalue = [36.5164, 50.8026]\nclass = Survived", fillcolor="#399de548"] ;
39 -> 40 ;
41 [label="EmbarkIsS <= 0.0\nentropy = 0.9666\nsamples = 31\nvalue = [21.9098, 33.8684]\nclass = Survived", fillcolor="#399de55a"] ;
40 -> 41 ;
42 [label="entropy = 0.955\nsamples = 8\nvalue = [6.4918, 3.9079]\nclass = Died", fillcolor="#e5813965"] ;
41 -> 42 ;
43 [label="entropy = 0.9246\nsamples = 23\nvalue = [15.418, 29.9605]\nclass = Survived", fillcolor="#399de57c"] ;
41 -> 43 ;
44 [label="FamilySize <= 2.5\nentropy = 0.9961\nsamples = 20\nvalue = [14.6066, 16.9342]\nclass = Survived", fillcolor="#399de523"] ;
40 -> 44 ;
45 [label="entropy = 1.0\nsamples = 17\nvalue = [12.9836, 13.0263]\nclass = Survived", fillcolor="#399de501"] ;
44 -> 45 ;
46 [label="entropy = 0.8731\nsamples = 3\nvalue = [1.623, 3.9079]\nclass = Survived", fillcolor="#399de595"] ;
44 -> 46 ;
47 [label="entropy = 0.0\nsamples = 2\nvalue = [0.0, 5.2105]\nclass = Survived", fillcolor="#399de5ff"] ;
39 -> 47 ;
48 [label="EmbarkIsC <= 0.0\nentropy = 0.6132\nsamples = 12\nvalue = [14.6066, 2.6053]\nclass = Died", fillcolor="#e58139d2"] ;
38 -> 48 ;
49 [label="HasCabin <= 0.0\nentropy = 0.718\nsamples = 9\nvalue = [10.5492, 2.6053]\nclass = Died", fillcolor="#e58139c0"] ;
48 -> 49 ;
50 [label="entropy = 0.0\nsamples = 2\nvalue = [4.0574, 0.0]\nclass = Died", fillcolor="#e58139ff"] ;
49 -> 50 ;
51 [label="entropy = 0.864\nsamples = 7\nvalue = [6.4918, 2.6053]\nclass = Died", fillcolor="#e5813999"] ;
49 -> 51 ;
52 [label="entropy = 0.0\nsamples = 3\nvalue = [4.0574, 0.0]\nclass = Died", fillcolor="#e58139ff"] ;
48 -> 52 ;
53 [label="EmbarkIsC <= 0.0\nentropy = 0.9913\nsamples = 6\nvalue = [4.8689, 3.9079]\nclass = Died", fillcolor="#e5813932"] ;
37 -> 53 ;
54 [label="entropy = 0.0\nsamples = 3\nvalue = [3.2459, 0.0]\nclass = Died", fillcolor="#e58139ff"] ;
53 -> 54 ;
55 [label="entropy = 0.8731\nsamples = 3\nvalue = [1.623, 3.9079]\nclass = Survived", fillcolor="#399de595"] ;
53 -> 55 ;
56 [label="AgeGroup <= 0.5\nentropy = 0.7469\nsamples = 287\nvalue = [303.4918, 82.0658]\nclass = Died", fillcolor="#e58139ba"] ;
36 -> 56 ;
57 [label="FamilySize <= 4.5\nentropy = 0.9949\nsamples = 19\nvalue = [15.418, 18.2368]\nclass = Survived", fillcolor="#399de527"] ;
56 -> 57 ;
58 [label="entropy = 0.0\nsamples = 8\nvalue = [0.0, 18.2368]\nclass = Survived", fillcolor="#399de5ff"] ;
57 -> 58 ;
59 [label="entropy = 0.0\nsamples = 11\nvalue = [15.418, 0.0]\nclass = Died", fillcolor="#e58139ff"] ;
57 -> 59 ;
60 [label="EmbarkIsQ <= 0.0\nentropy = 0.6831\nsamples = 268\nvalue = [288.0738, 63.8289]\nclass = Died", fillcolor="#e58139c6"] ;
56 -> 60 ;
61 [label="FamilySize <= 3.5\nentropy = 0.7115\nsamples = 250\nvalue = [263.7295, 63.8289]\nclass = Died", fillcolor="#e58139c1"] ;
60 -> 61 ;
62 [label="YesRev <= 0.0\nentropy = 0.7267\nsamples = 238\nvalue = [251.5574, 63.8289]\nclass = Died", fillcolor="#e58139be"] ;
61 -> 62 ;
63 [label="HasCabin <= 0.0\nentropy = 0.7319\nsamples = 235\nvalue = [247.5, 63.8289]\nclass = Died", fillcolor="#e58139bd"] ;
62 -> 63 ;
64 [label="entropy = 0.7306\nsamples = 231\nvalue = [243.4426, 62.5263]\nclass = Died", fillcolor="#e58139be"] ;
63 -> 64 ;
65 [label="entropy = 0.8\nsamples = 4\nvalue = [4.0574, 1.3026]\nclass = Died", fillcolor="#e58139ad"] ;
63 -> 65 ;
66 [label="entropy = 0.0\nsamples = 3\nvalue = [4.0574, 0.0]\nclass = Died", fillcolor="#e58139ff"] ;
62 -> 66 ;
67 [label="entropy = 0.0\nsamples = 12\nvalue = [12.1721, 0.0]\nclass = Died", fillcolor="#e58139ff"] ;
61 -> 67 ;
68 [label="entropy = 0.0\nsamples = 18\nvalue = [24.3443, 0.0]\nclass = Died", fillcolor="#e58139ff"] ;
60 -> 68 ;
}