digraph Tree {
node [shape=box, style="filled, rounded", color="black", fontname=helvetica] ;
edge [fontname=helvetica] ;
0 [label="YesMrs <= 0.0\nentropy = 0.9982\nsamples = 560\nvalue = [428.459, 472.8553]\nclass = Survived", fillcolor="#399de518"] ;
1 [label="Gender <= 0.0\nentropy = 0.9938\nsamples = 481\nvalue = [403.3033, 334.7763]\nclass = Died", fillcolor="#e581392b"] ;
0 -> 1 [labeldistance=2.5, labelangle=45, headlabel="True"] ;
2 [label="TicketBeginLetter <= 0.0\nentropy = 0.7064\nsamples = 115\nvalue = [42.1967, 177.1579]\nclass = Survived", fillcolor="#399de5c2"] ;
1 -> 2 ;
3 [label="Fare <= 3.5\nentropy = 0.6183\nsamples = 90\nvalue = [25.9672, 143.2895]\nclass = Survived", fillcolor="#399de5d1"] ;
2 -> 3 ;
4 [label="EmbarkIsS <= 0.0\nentropy = 0.7331\nsamples = 72\nvalue = [25.9672, 100.3026]\nclass = Survived", fillcolor="#399de5bd"] ;
3 -> 4 ;
5 [label="AgeGroup <= 0.5\nentropy = 0.6363\nsamples = 35\nvalue = [9.7377, 50.8026]\nclass = Survived", fillcolor="#399de5ce"] ;
4 -> 5 ;
6 [label="entropy = 0.0\nsamples = 3\nvalue = [0.0, 9.1184]\nclass = Survived", fillcolor="#399de5ff"] ;
5 -> 6 ;
7 [label="entropy = 0.7001\nsamples = 32\nvalue = [9.7377, 41.6842]\nclass = Survived", fillcolor="#399de5c3"] ;
5 -> 7 ;
8 [label="Pclass <= 2.5\nentropy = 0.8063\nsamples = 37\nvalue = [16.2295, 49.5]\nclass = Survived", fillcolor="#399de5ab"] ;
4 -> 8 ;
9 [label="entropy = 0.0\nsamples = 11\nvalue = [0.0, 26.0526]\nclass = Survived", fillcolor="#399de5ff"] ;
8 -> 9 ;
10 [label="entropy = 0.976\nsamples = 26\nvalue = [16.2295, 23.4474]\nclass = Survived", fillcolor="#399de54e"] ;
8 -> 10 ;
11 [label="entropy = 0.0\nsamples = 18\nvalue = [0.0, 42.9868]\nclass = Survived", fillcolor="#399de5ff"] ;
3 -> 11 ;
12 [label="Pclass <= 2.5\nentropy = 0.9086\nsamples = 25\nvalue = [16.2295, 33.8684]\nclass = Survived", fillcolor="#399de585"] ;
2 -> 12 ;
13 [label="AgeGroup <= 3.5\nentropy = 0.488\nsamples = 15\nvalue = [3.2459, 27.3553]\nclass = Survived", fillcolor="#399de5e1"] ;
12 -> 13 ;
14 [label="entropy = 0.0\nsamples = 13\nvalue = [0.0, 24.75]\nclass = Survived", fillcolor="#399de5ff"] ;
13 -> 14 ;
15 [label="entropy = 0.9913\nsamples = 2\nvalue = [3.2459, 2.6053]\nclass = Died", fillcolor="#e5813932"] ;
13 -> 15 ;
16 [label="AgeGroup <= 1.5\nentropy = 0.919\nsamples = 10\nvalue = [12.9836, 6.5132]\nclass = Died", fillcolor="#e581397f"] ;
12 -> 16 ;
17 [label="entropy = 0.0\nsamples = 2\nvalue = [3.2459, 0.0]\nclass = Died", fillcolor="#e58139ff"] ;
16 -> 17 ;
18 [label="Fare <= 1.5\nentropy = 0.9714\nsamples = 8\nvalue = [9.7377, 6.5132]\nclass = Died", fillcolor="#e5813954"] ;
16 -> 18 ;
19 [label="entropy = 1.0\nsamples = 6\nvalue = [6.4918, 6.5132]\nclass = Survived", fillcolor="#399de501"] ;
18 -> 19 ;
20 [label="entropy = -0.0\nsamples = 2\nvalue = [3.2459, 0.0]\nclass = Died", fillcolor="#e58139ff"] ;
18 -> 20 ;
21 [label="AgeGroup <= 0.5\nentropy = 0.886\nsamples = 366\nvalue = [361.1066, 157.6184]\nclass = Died", fillcolor="#e5813990"] ;
1 -> 21 ;
22 [label="FamilySize <= 4.0\nentropy = 0.7772\nsamples = 21\nvalue = [8.9262, 29.9605]\nclass = Survived", fillcolor="#399de5b3"] ;
21 -> 22 ;
23 [label="entropy = 0.0\nsamples = 13\nvalue = [0.0, 29.9605]\nclass = Survived", fillcolor="#399de5ff"] ;
22 -> 23 ;
24 [label="entropy = -0.0\nsamples = 8\nvalue = [8.9262, 0.0]\nclass = Died", fillcolor="#e58139ff"] ;
22 -> 24 ;
25 [label="FamilySize <= 4.5\nentropy = 0.8357\nsamples = 345\nvalue = [352.1803, 127.6579]\nclass = Died", fillcolor="#e58139a3"] ;
21 -> 25 ;
26 [label="EmbarkIsS <= 0.0\nentropy = 0.8497\nsamples = 333\nvalue = [335.1393, 127.6579]\nclass = Died", fillcolor="#e581399e"] ;
25 -> 26 ;
27 [label="HasCabin <= 0.0\nentropy = 0.9288\nsamples = 91\nvalue = [84.3934, 44.2895]\nclass = Died", fillcolor="#e5813979"] ;
26 -> 27 ;
28 [label="entropy = 0.8171\nsamples = 65\nvalue = [68.9754, 23.4474]\nclass = Died", fillcolor="#e58139a8"] ;
27 -> 28 ;
29 [label="entropy = 0.9838\nsamples = 26\nvalue = [15.418, 20.8421]\nclass = Survived", fillcolor="#399de542"] ;
27 -> 29 ;
30 [label="YesRev <= 0.0\nentropy = 0.8105\nsamples = 242\nvalue = [250.7459, 83.3684]\nclass = Died", fillcolor="#e58139aa"] ;
26 -> 30 ;
31 [label="entropy = 0.8134\nsamples = 239\nvalue = [248.3115, 83.3684]\nclass = Died", fillcolor="#e58139a9"] ;
30 -> 31 ;
32 [label="entropy = 0.0\nsamples = 3\nvalue = [2.4344, 0.0]\nclass = Died", fillcolor="#e58139ff"] ;
30 -> 32 ;
33 [label="entropy = 0.0\nsamples = 12\nvalue = [17.041, 0.0]\nclass = Died", fillcolor="#e58139ff"] ;
25 -> 33 ;
34 [label="AgeGroup <= 3.5\nentropy = 0.62\nsamples = 79\nvalue = [25.1557, 138.0789]\nclass = Survived", fillcolor="#399de5d1"] ;
0 -> 34 [labeldistance=2.5, labelangle=-45, headlabel="False"] ;
35 [label="AgeGroup <= 1.5\nentropy = 0.6621\nsamples = 70\nvalue = [25.1557, 121.1447]\nclass = Survived", fillcolor="#399de5ca"] ;
34 -> 35 ;
36 [label="entropy = 0.4082\nsamples = 11\nvalue = [1.623, 18.2368]\nclass = Survived", fillcolor="#399de5e8"] ;
35 -> 36 ;
37 [label="Pclass <= 2.5\nentropy = 0.6933\nsamples = 59\nvalue = [23.5328, 102.9079]\nclass = Survived", fillcolor="#399de5c5"] ;
35 -> 37 ;
38 [label="Fare <= 4.5\nentropy = 0.2771\nsamples = 38\nvalue = [4.0574, 80.7632]\nclass = Survived", fillcolor="#399de5f2"] ;
37 -> 38 ;
39 [label="Fare <= 3.5\nentropy = 0.1979\nsamples = 34\nvalue = [2.4344, 76.8553]\nclass = Survived", fillcolor="#399de5f7"] ;
38 -> 39 ;
40 [label="entropy = 0.2782\nsamples = 22\nvalue = [2.4344, 48.1974]\nclass = Survived", fillcolor="#399de5f2"] ;
39 -> 40 ;
41 [label="entropy = 0.0\nsamples = 12\nvalue = [0.0, 28.6579]\nclass = Survived", fillcolor="#399de5ff"] ;
39 -> 41 ;
42 [label="entropy = 0.8731\nsamples = 4\nvalue = [1.623, 3.9079]\nclass = Survived", fillcolor="#399de595"] ;
38 -> 42 ;
43 [label="FamilySize <= 4.5\nentropy = 0.997\nsamples = 21\nvalue = [19.4754, 22.1447]\nclass = Survived", fillcolor="#399de51f"] ;
37 -> 43 ;
44 [label="AgeGroup <= 2.5\nentropy = 0.9767\nsamples = 17\nvalue = [15.418, 22.1447]\nclass = Survived", fillcolor="#399de54d"] ;
43 -> 44 ;
45 [label="entropy = 0.9265\nsamples = 5\nvalue = [4.0574, 7.8158]\nclass = Survived", fillcolor="#399de57b"] ;
44 -> 45 ;
46 [label="entropy = 0.9903\nsamples = 12\nvalue = [11.3607, 14.3289]\nclass = Survived", fillcolor="#399de535"] ;
44 -> 46 ;
47 [label="entropy = -0.0\nsamples = 4\nvalue = [4.0574, 0.0]\nclass = Died", fillcolor="#e58139ff"] ;
43 -> 47 ;
48 [label="entropy = 0.0\nsamples = 9\nvalue = [0.0, 16.9342]\nclass = Survived", fillcolor="#399de5ff"] ;
34 -> 48 ;
}