digraph Tree {
node [shape=box, style="filled, rounded", color="black", fontname=helvetica] ;
edge [fontname=helvetica] ;
0 [label="YesMrs <= 0.0\nentropy = 0.9999\nsamples = 558\nvalue = [449.5574, 438.9868]\nclass = Died", fillcolor="#e5813906"] ;
1 [label="YesMr <= 0.0\nentropy = 0.9764\nsamples = 480\nvalue = [433.3279, 300.9079]\nclass = Died", fillcolor="#e581394e"] ;
0 -> 1 [labeldistance=2.5, labelangle=45, headlabel="True"] ;
2 [label="Pclass <= 2.5\nentropy = 0.8301\nsamples = 149\nvalue = [72.2213, 203.2105]\nclass = Survived", fillcolor="#399de5a4"] ;
1 -> 2 ;
3 [label="Gender <= 0.0\nentropy = 0.4988\nsamples = 67\nvalue = [13.7951, 112.0263]\nclass = Survived", fillcolor="#399de5e0"] ;
2 -> 3 ;
4 [label="Pclass <= 1.5\nentropy = 0.0729\nsamples = 47\nvalue = [0.8115, 91.1842]\nclass = Survived", fillcolor="#399de5fd"] ;
3 -> 4 ;
5 [label="entropy = 0.0\nsamples = 29\nvalue = [0.0, 59.9211]\nclass = Survived", fillcolor="#399de5ff"] ;
4 -> 5 ;
6 [label="FamilySize <= 1.5\nentropy = 0.1702\nsamples = 18\nvalue = [0.8115, 31.2632]\nclass = Survived", fillcolor="#399de5f8"] ;
4 -> 6 ;
7 [label="HasCabin <= 0.0\nentropy = 0.322\nsamples = 9\nvalue = [0.8115, 13.0263]\nclass = Survived", fillcolor="#399de5ef"] ;
6 -> 7 ;
8 [label="entropy = 0.3742\nsamples = 7\nvalue = [0.8115, 10.4211]\nclass = Survived", fillcolor="#399de5eb"] ;
7 -> 8 ;
9 [label="entropy = 0.0\nsamples = 2\nvalue = [0.0, 2.6053]\nclass = Survived", fillcolor="#399de5ff"] ;
7 -> 9 ;
10 [label="entropy = 0.0\nsamples = 9\nvalue = [0.0, 18.2368]\nclass = Survived", fillcolor="#399de5ff"] ;
6 -> 10 ;
11 [label="YesMaster <= 0.0\nentropy = 0.9607\nsamples = 20\nvalue = [12.9836, 20.8421]\nclass = Survived", fillcolor="#399de560"] ;
3 -> 11 ;
12 [label="EmbarkIsC <= 0.0\nentropy = 0.955\nsamples = 13\nvalue = [12.9836, 7.8158]\nclass = Died", fillcolor="#e5813965"] ;
11 -> 12 ;
13 [label="FamilySize <= 2.5\nentropy = 0.7804\nsamples = 10\nvalue = [12.9836, 3.9079]\nclass = Died", fillcolor="#e58139b2"] ;
12 -> 13 ;
14 [label="entropy = 0.0\nsamples = 7\nvalue = [9.7377, 0.0]\nclass = Died", fillcolor="#e58139ff"] ;
13 -> 14 ;
15 [label="entropy = 0.9938\nsamples = 3\nvalue = [3.2459, 3.9079]\nclass = Survived", fillcolor="#399de52b"] ;
13 -> 15 ;
16 [label="entropy = 0.0\nsamples = 3\nvalue = [0.0, 3.9079]\nclass = Survived", fillcolor="#399de5ff"] ;
12 -> 16 ;
17 [label="entropy = 0.0\nsamples = 7\nvalue = [0.0, 13.0263]\nclass = Survived", fillcolor="#399de5ff"] ;
11 -> 17 ;
18 [label="Fare <= 2.5\nentropy = 0.9651\nsamples = 82\nvalue = [58.4262, 91.1842]\nclass = Survived", fillcolor="#399de55c"] ;
2 -> 18 ;
19 [label="YesMaster <= 0.0\nentropy = 0.8316\nsamples = 63\nvalue = [31.6475, 88.5789]\nclass = Survived", fillcolor="#399de5a4"] ;
18 -> 19 ;
20 [label="AgeGroup <= 1.5\nentropy = 0.8594\nsamples = 57\nvalue = [30.8361, 78.1579]\nclass = Survived", fillcolor="#399de59a"] ;
19 -> 20 ;
21 [label="Fare <= 1.5\nentropy = 0.7696\nsamples = 24\nvalue = [11.3607, 39.0789]\nclass = Survived", fillcolor="#399de5b5"] ;
20 -> 21 ;
22 [label="entropy = 0.5339\nsamples = 9\nvalue = [3.2459, 23.4474]\nclass = Survived", fillcolor="#399de5dc"] ;
21 -> 22 ;
23 [label="entropy = 0.9265\nsamples = 15\nvalue = [8.1148, 15.6316]\nclass = Survived", fillcolor="#399de57b"] ;
21 -> 23 ;
24 [label="AgeGroup <= 2.5\nentropy = 0.9176\nsamples = 33\nvalue = [19.4754, 39.0789]\nclass = Survived", fillcolor="#399de580"] ;
20 -> 24 ;
25 [label="entropy = 0.8935\nsamples = 17\nvalue = [10.5492, 23.4474]\nclass = Survived", fillcolor="#399de58c"] ;
24 -> 25 ;
26 [label="entropy = 0.9455\nsamples = 16\nvalue = [8.9262, 15.6316]\nclass = Survived", fillcolor="#399de56d"] ;
24 -> 26 ;
27 [label="AgeGroup <= 0.5\nentropy = 0.3742\nsamples = 6\nvalue = [0.8115, 10.4211]\nclass = Survived", fillcolor="#399de5eb"] ;
19 -> 27 ;
28 [label="entropy = 0.5023\nsamples = 4\nvalue = [0.8115, 6.5132]\nclass = Survived", fillcolor="#399de5df"] ;
27 -> 28 ;
29 [label="entropy = 0.0\nsamples = 2\nvalue = [0.0, 3.9079]\nclass = Survived", fillcolor="#399de5ff"] ;
27 -> 29 ;
30 [label="entropy = 0.432\nsamples = 19\nvalue = [26.7787, 2.6053]\nclass = Died", fillcolor="#e58139e6"] ;
18 -> 30 ;
31 [label="EmbarkIsS <= 0.0\nentropy = 0.7471\nsamples = 331\nvalue = [361.1066, 97.6974]\nclass = Died", fillcolor="#e58139ba"] ;
1 -> 31 ;
32 [label="AgeGroup <= 1.5\nentropy = 0.8117\nsamples = 75\nvalue = [81.959, 27.3553]\nclass = Died", fillcolor="#e58139aa"] ;
31 -> 32 ;
33 [label="Pclass <= 2.5\nentropy = 0.9992\nsamples = 10\nvalue = [9.7377, 9.1184]\nclass = Died", fillcolor="#e5813910"] ;
32 -> 33 ;
34 [label="entropy = 0.4082\nsamples = 3\nvalue = [0.8115, 9.1184]\nclass = Survived", fillcolor="#399de5e8"] ;
33 -> 34 ;
35 [label="entropy = -0.0\nsamples = 7\nvalue = [8.9262, 0.0]\nclass = Died", fillcolor="#e58139ff"] ;
33 -> 35 ;
36 [label="Fare <= 3.5\nentropy = 0.7251\nsamples = 65\nvalue = [72.2213, 18.2368]\nclass = Died", fillcolor="#e58139bf"] ;
32 -> 36 ;
37 [label="FamilySize <= 2.5\nentropy = 0.5194\nsamples = 52\nvalue = [59.2377, 7.8158]\nclass = Died", fillcolor="#e58139dd"] ;
36 -> 37 ;
38 [label="Fare <= 1.5\nentropy = 0.478\nsamples = 49\nvalue = [56.8033, 6.5132]\nclass = Died", fillcolor="#e58139e2"] ;
37 -> 38 ;
39 [label="entropy = 0.5501\nsamples = 31\nvalue = [35.7049, 5.2105]\nclass = Died", fillcolor="#e58139da"] ;
38 -> 39 ;
40 [label="entropy = 0.3201\nsamples = 18\nvalue = [21.0984, 1.3026]\nclass = Died", fillcolor="#e58139ef"] ;
38 -> 40 ;
41 [label="entropy = 0.9328\nsamples = 3\nvalue = [2.4344, 1.3026]\nclass = Died", fillcolor="#e5813977"] ;
37 -> 41 ;
42 [label="HasCabin <= 0.0\nentropy = 0.9913\nsamples = 13\nvalue = [12.9836, 10.4211]\nclass = Died", fillcolor="#e5813932"] ;
36 -> 42 ;
43 [label="entropy = 0.0\nsamples = 4\nvalue = [5.6803, 0.0]\nclass = Died", fillcolor="#e58139ff"] ;
42 -> 43 ;
44 [label="TicketBeginLetter <= 0.0\nentropy = 0.9776\nsamples = 9\nvalue = [7.3033, 10.4211]\nclass = Survived", fillcolor="#399de54c"] ;
42 -> 44 ;
45 [label="entropy = 0.6621\nsamples = 3\nvalue = [0.8115, 3.9079]\nclass = Survived", fillcolor="#399de5ca"] ;
44 -> 45 ;
46 [label="entropy = 1.0\nsamples = 6\nvalue = [6.4918, 6.5132]\nclass = Survived", fillcolor="#399de501"] ;
44 -> 46 ;
47 [label="HasCabin <= 0.0\nentropy = 0.7245\nsamples = 256\nvalue = [279.1475, 70.3421]\nclass = Died", fillcolor="#e58139bf"] ;
31 -> 47 ;
48 [label="AgeGroup <= 3.5\nentropy = 0.6143\nsamples = 211\nvalue = [240.1967, 42.9868]\nclass = Died", fillcolor="#e58139d1"] ;
47 -> 48 ;
49 [label="TicketBeginLetter <= 0.0\nentropy = 0.5927\nsamples = 204\nvalue = [233.7049, 39.0789]\nclass = Died", fillcolor="#e58139d4"] ;
48 -> 49 ;
50 [label="AgeGroup <= 1.5\nentropy = 0.5388\nsamples = 138\nvalue = [157.4262, 22.1447]\nclass = Died", fillcolor="#e58139db"] ;
49 -> 50 ;
51 [label="entropy = 0.0\nsamples = 26\nvalue = [33.2705, 0.0]\nclass = Died", fillcolor="#e58139ff"] ;
50 -> 51 ;
52 [label="entropy = 0.6132\nsamples = 112\nvalue = [124.1557, 22.1447]\nclass = Died", fillcolor="#e58139d2"] ;
50 -> 52 ;
53 [label="Pclass <= 2.5\nentropy = 0.6837\nsamples = 66\nvalue = [76.2787, 16.9342]\nclass = Died", fillcolor="#e58139c6"] ;
49 -> 53 ;
54 [label="entropy = 0.0\nsamples = 14\nvalue = [18.6639, 0.0]\nclass = Died", fillcolor="#e58139ff"] ;
53 -> 54 ;
55 [label="entropy = 0.773\nsamples = 52\nvalue = [57.6148, 16.9342]\nclass = Died", fillcolor="#e58139b4"] ;
53 -> 55 ;
56 [label="Fare <= 1.5\nentropy = 0.955\nsamples = 7\nvalue = [6.4918, 3.9079]\nclass = Died", fillcolor="#e5813965"] ;
48 -> 56 ;
57 [label="entropy = 0.0\nsamples = 2\nvalue = [1.623, 0.0]\nclass = Died", fillcolor="#e58139ff"] ;
56 -> 57 ;
58 [label="entropy = 0.9913\nsamples = 5\nvalue = [4.8689, 3.9079]\nclass = Died", fillcolor="#e5813932"] ;
56 -> 58 ;
59 [label="FamilySize <= 1.5\nentropy = 0.9778\nsamples = 45\nvalue = [38.9508, 27.3553]\nclass = Died", fillcolor="#e581394c"] ;
47 -> 59 ;
60 [label="Fare <= 0.5\nentropy = 0.9976\nsamples = 29\nvalue = [21.9098, 19.5395]\nclass = Died", fillcolor="#e581391c"] ;
59 -> 60 ;
61 [label="entropy = 0.0\nsamples = 4\nvalue = [4.0574, 0.0]\nclass = Died", fillcolor="#e58139ff"] ;
60 -> 61 ;
62 [label="TicketBeginLetter <= 0.0\nentropy = 0.9985\nsamples = 25\nvalue = [17.8525, 19.5395]\nclass = Survived", fillcolor="#399de516"] ;
60 -> 62 ;
63 [label="entropy = 0.9946\nsamples = 21\nvalue = [17.041, 14.3289]\nclass = Died", fillcolor="#e5813929"] ;
62 -> 63 ;
64 [label="entropy = 0.5703\nsamples = 4\nvalue = [0.8115, 5.2105]\nclass = Survived", fillcolor="#399de5d7"] ;
62 -> 64 ;
65 [label="FamilySize <= 2.5\nentropy = 0.8982\nsamples = 16\nvalue = [17.041, 7.8158]\nclass = Died", fillcolor="#e581398a"] ;
59 -> 65 ;
66 [label="entropy = 0.7615\nsamples = 11\nvalue = [13.7951, 3.9079]\nclass = Died", fillcolor="#e58139b7"] ;
65 -> 66 ;
67 [label="AgeGroup <= 3.5\nentropy = 0.9938\nsamples = 5\nvalue = [3.2459, 3.9079]\nclass = Survived", fillcolor="#399de52b"] ;
65 -> 67 ;
68 [label="entropy = 0.6621\nsamples = 3\nvalue = [0.8115, 3.9079]\nclass = Survived", fillcolor="#399de5ca"] ;
67 -> 68 ;
69 [label="entropy = 0.0\nsamples = 2\nvalue = [2.4344, 0.0]\nclass = Died", fillcolor="#e58139ff"] ;
67 -> 69 ;
70 [label="EmbarkIsC <= 0.0\nentropy = 0.4852\nsamples = 78\nvalue = [16.2295, 138.0789]\nclass = Survived", fillcolor="#399de5e1"] ;
0 -> 70 [labeldistance=2.5, labelangle=-45, headlabel="False"] ;
71 [label="EmbarkIsQ <= 0.0\nentropy = 0.54\nsamples = 56\nvalue = [13.7951, 97.6974]\nclass = Survived", fillcolor="#399de5db"] ;
70 -> 71 ;
72 [label="TicketBeginLetter <= 0.0\nentropy = 0.5256\nsamples = 54\nvalue = [12.9836, 96.3947]\nclass = Survived", fillcolor="#399de5dd"] ;
71 -> 72 ;
73 [label="Fare <= 2.5\nentropy = 0.488\nsamples = 47\nvalue = [9.7377, 82.0658]\nclass = Survived", fillcolor="#399de5e1"] ;
72 -> 73 ;
74 [label="Pclass <= 2.5\nentropy = 0.8194\nsamples = 21\nvalue = [8.9262, 26.0526]\nclass = Survived", fillcolor="#399de5a8"] ;
73 -> 74 ;
75 [label="entropy = 0.0\nsamples = 8\nvalue = [0.0, 14.3289]\nclass = Survived", fillcolor="#399de5ff"] ;
74 -> 75 ;
76 [label="FamilySize <= 1.5\nentropy = 0.9867\nsamples = 13\nvalue = [8.9262, 11.7237]\nclass = Survived", fillcolor="#399de53d"] ;
74 -> 76 ;
77 [label="entropy = 0.9607\nsamples = 3\nvalue = [2.4344, 3.9079]\nclass = Survived", fillcolor="#399de560"] ;
76 -> 77 ;
78 [label="entropy = 0.9938\nsamples = 10\nvalue = [6.4918, 7.8158]\nclass = Survived", fillcolor="#399de52b"] ;
76 -> 78 ;
79 [label="FamilySize <= 3.5\nentropy = 0.108\nsamples = 26\nvalue = [0.8115, 56.0132]\nclass = Survived", fillcolor="#399de5fb"] ;
73 -> 79 ;
80 [label="entropy = 0.0\nsamples = 23\nvalue = [0.0, 50.8026]\nclass = Survived", fillcolor="#399de5ff"] ;
79 -> 80 ;
81 [label="entropy = 0.5703\nsamples = 3\nvalue = [0.8115, 5.2105]\nclass = Survived", fillcolor="#399de5d7"] ;
79 -> 81 ;
82 [label="entropy = 0.6902\nsamples = 7\nvalue = [3.2459, 14.3289]\nclass = Survived", fillcolor="#399de5c5"] ;
72 -> 82 ;
83 [label="entropy = 0.9607\nsamples = 2\nvalue = [0.8115, 1.3026]\nclass = Survived", fillcolor="#399de560"] ;
71 -> 83 ;
84 [label="Pclass <= 2.5\nentropy = 0.3148\nsamples = 22\nvalue = [2.4344, 40.3816]\nclass = Survived", fillcolor="#399de5f0"] ;
70 -> 84 ;
85 [label="entropy = 0.0\nsamples = 15\nvalue = [0.0, 31.2632]\nclass = Survived", fillcolor="#399de5ff"] ;
84 -> 85 ;
86 [label="FamilySize <= 2.5\nentropy = 0.7429\nsamples = 7\nvalue = [2.4344, 9.1184]\nclass = Survived", fillcolor="#399de5bb"] ;
84 -> 86 ;
87 [label="entropy = 0.6621\nsamples = 3\nvalue = [0.8115, 3.9079]\nclass = Survived", fillcolor="#399de5ca"] ;
86 -> 87 ;
88 [label="entropy = 0.7909\nsamples = 4\nvalue = [1.623, 5.2105]\nclass = Survived", fillcolor="#399de5b0"] ;
86 -> 88 ;
}