digraph Tree {
node [shape=box, style="filled, rounded", color="black", fontname=helvetica] ;
edge [fontname=helvetica] ;
0 [label="HasCabin <= 0.0\nentropy = 0.9999\nsamples = 553\nvalue = [442.2541, 450.7105]\nclass = Survived", fillcolor="#399de505"] ;
1 [label="Gender <= 0.0\nentropy = 0.9766\nsamples = 414\nvalue = [382.2049, 265.7368]\nclass = Died", fillcolor="#e581394e"] ;
0 -> 1 [labeldistance=2.5, labelangle=45, headlabel="True"] ;
2 [label="Pclass <= 2.5\nentropy = 0.8295\nsamples = 132\nvalue = [63.2951, 178.4605]\nclass = Survived", fillcolor="#399de5a5"] ;
1 -> 2 ;
3 [label="AgeGroup <= 1.5\nentropy = 0.2704\nsamples = 51\nvalue = [4.8689, 100.3026]\nclass = Survived", fillcolor="#399de5f3"] ;
2 -> 3 ;
4 [label="entropy = 0.0\nsamples = 13\nvalue = [0.0, 26.0526]\nclass = Survived", fillcolor="#399de5ff"] ;
3 -> 4 ;
5 [label="AgeGroup <= 2.5\nentropy = 0.3335\nsamples = 38\nvalue = [4.8689, 74.25]\nclass = Survived", fillcolor="#399de5ee"] ;
3 -> 5 ;
6 [label="YesMrs <= 0.0\nentropy = 0.4798\nsamples = 16\nvalue = [4.0574, 35.1711]\nclass = Survived", fillcolor="#399de5e2"] ;
5 -> 6 ;
7 [label="entropy = 0.5703\nsamples = 5\nvalue = [1.623, 10.4211]\nclass = Survived", fillcolor="#399de5d7"] ;
6 -> 7 ;
8 [label="entropy = 0.435\nsamples = 11\nvalue = [2.4344, 24.75]\nclass = Survived", fillcolor="#399de5e6"] ;
6 -> 8 ;
9 [label="YesMiss <= 0.0\nentropy = 0.1434\nsamples = 22\nvalue = [0.8115, 39.0789]\nclass = Survived", fillcolor="#399de5fa"] ;
5 -> 9 ;
10 [label="entropy = 0.0\nsamples = 13\nvalue = [0.0, 27.3553]\nclass = Survived", fillcolor="#399de5ff"] ;
9 -> 10 ;
11 [label="entropy = 0.346\nsamples = 9\nvalue = [0.8115, 11.7237]\nclass = Survived", fillcolor="#399de5ed"] ;
9 -> 11 ;
12 [label="EmbarkIsS <= 0.0\nentropy = 0.9849\nsamples = 81\nvalue = [58.4262, 78.1579]\nclass = Survived", fillcolor="#399de540"] ;
2 -> 12 ;
13 [label="FamilySize <= 1.5\nentropy = 0.9335\nsamples = 32\nvalue = [20.2869, 37.7763]\nclass = Survived", fillcolor="#399de576"] ;
12 -> 13 ;
14 [label="EmbarkIsQ <= 0.0\nentropy = 0.7372\nsamples = 17\nvalue = [6.4918, 24.75]\nclass = Survived", fillcolor="#399de5bc"] ;
13 -> 14 ;
15 [label="entropy = 0.9027\nsamples = 4\nvalue = [2.4344, 5.2105]\nclass = Survived", fillcolor="#399de588"] ;
14 -> 15 ;
16 [label="entropy = 0.6621\nsamples = 13\nvalue = [4.0574, 19.5395]\nclass = Survived", fillcolor="#399de5ca"] ;
14 -> 16 ;
17 [label="YesMrs <= 0.0\nentropy = 0.9994\nsamples = 15\nvalue = [13.7951, 13.0263]\nclass = Died", fillcolor="#e581390e"] ;
13 -> 17 ;
18 [label="entropy = 0.9112\nsamples = 9\nvalue = [5.6803, 11.7237]\nclass = Survived", fillcolor="#399de583"] ;
17 -> 18 ;
19 [label="entropy = 0.5798\nsamples = 6\nvalue = [8.1148, 1.3026]\nclass = Died", fillcolor="#e58139d6"] ;
17 -> 19 ;
20 [label="FamilySize <= 4.5\nentropy = 0.9994\nsamples = 49\nvalue = [38.1393, 40.3816]\nclass = Survived", fillcolor="#399de50e"] ;
12 -> 20 ;
21 [label="FamilySize <= 2.5\nentropy = 0.8819\nsamples = 31\nvalue = [16.2295, 37.7763]\nclass = Survived", fillcolor="#399de591"] ;
20 -> 21 ;
22 [label="entropy = 0.9607\nsamples = 25\nvalue = [15.418, 24.75]\nclass = Survived", fillcolor="#399de560"] ;
21 -> 22 ;
23 [label="entropy = 0.322\nsamples = 6\nvalue = [0.8115, 13.0263]\nclass = Survived", fillcolor="#399de5ef"] ;
21 -> 23 ;
24 [label="FamilySize <= 6.5\nentropy = 0.4886\nsamples = 18\nvalue = [21.9098, 2.6053]\nclass = Died", fillcolor="#e58139e1"] ;
20 -> 24 ;
25 [label="entropy = 0.0\nsamples = 9\nvalue = [12.9836, 0.0]\nclass = Died", fillcolor="#e58139ff"] ;
24 -> 25 ;
26 [label="entropy = 0.7708\nsamples = 9\nvalue = [8.9262, 2.6053]\nclass = Died", fillcolor="#e58139b5"] ;
24 -> 26 ;
27 [label="YesMr <= 0.0\nentropy = 0.7507\nsamples = 282\nvalue = [318.9098, 87.2763]\nclass = Died", fillcolor="#e58139b9"] ;
1 -> 27 ;
28 [label="YesMaster <= 0.0\nentropy = 0.9879\nsamples = 28\nvalue = [21.0984, 27.3553]\nclass = Survived", fillcolor="#399de53a"] ;
27 -> 28 ;
29 [label="FamilySize <= 1.5\nentropy = 0.4996\nsamples = 8\nvalue = [10.5492, 1.3026]\nclass = Died", fillcolor="#e58139e0"] ;
28 -> 29 ;
30 [label="entropy = -0.0\nsamples = 5\nvalue = [8.9262, 0.0]\nclass = Died", fillcolor="#e58139ff"] ;
29 -> 30 ;
31 [label="entropy = 0.9913\nsamples = 3\nvalue = [1.623, 1.3026]\nclass = Died", fillcolor="#e5813932"] ;
29 -> 31 ;
32 [label="EmbarkIsQ <= 0.0\nentropy = 0.8664\nsamples = 20\nvalue = [10.5492, 26.0526]\nclass = Survived", fillcolor="#399de598"] ;
28 -> 32 ;
33 [label="EmbarkIsC <= 0.0\nentropy = 0.8194\nsamples = 18\nvalue = [8.9262, 26.0526]\nclass = Survived", fillcolor="#399de5a8"] ;
32 -> 33 ;
34 [label="entropy = 0.8973\nsamples = 15\nvalue = [8.9262, 19.5395]\nclass = Survived", fillcolor="#399de58b"] ;
33 -> 34 ;
35 [label="entropy = 0.0\nsamples = 3\nvalue = [0.0, 6.5132]\nclass = Survived", fillcolor="#399de5ff"] ;
33 -> 35 ;
36 [label="entropy = -0.0\nsamples = 2\nvalue = [1.623, 0.0]\nclass = Died", fillcolor="#e58139ff"] ;
32 -> 36 ;
37 [label="EmbarkIsS <= 0.0\nentropy = 0.652\nsamples = 254\nvalue = [297.8115, 59.9211]\nclass = Died", fillcolor="#e58139cc"] ;
27 -> 37 ;
38 [label="TicketBeginLetter <= 0.0\nentropy = 0.7786\nsamples = 45\nvalue = [47.877, 14.3289]\nclass = Died", fillcolor="#e58139b3"] ;
37 -> 38 ;
39 [label="Fare <= 1.5\nentropy = 0.8701\nsamples = 36\nvalue = [34.8934, 14.3289]\nclass = Died", fillcolor="#e5813996"] ;
38 -> 39 ;
40 [label="entropy = 0.6316\nsamples = 26\nvalue = [27.5902, 5.2105]\nclass = Died", fillcolor="#e58139cf"] ;
39 -> 40 ;
41 [label="entropy = 0.9912\nsamples = 10\nvalue = [7.3033, 9.1184]\nclass = Survived", fillcolor="#399de533"] ;
39 -> 41 ;
42 [label="entropy = 0.0\nsamples = 9\nvalue = [12.9836, 0.0]\nclass = Died", fillcolor="#e58139ff"] ;
38 -> 42 ;
43 [label="Pclass <= 1.5\nentropy = 0.6204\nsamples = 209\nvalue = [249.9344, 45.5921]\nclass = Died", fillcolor="#e58139d0"] ;
37 -> 43 ;
44 [label="entropy = 0.864\nsamples = 12\nvalue = [12.9836, 5.2105]\nclass = Died", fillcolor="#e5813999"] ;
43 -> 44 ;
45 [label="Pclass <= 2.5\nentropy = 0.5987\nsamples = 197\nvalue = [236.9508, 40.3816]\nclass = Died", fillcolor="#e58139d4"] ;
43 -> 45 ;
46 [label="entropy = 0.4959\nsamples = 48\nvalue = [64.1066, 7.8158]\nclass = Died", fillcolor="#e58139e0"] ;
45 -> 46 ;
47 [label="entropy = 0.6308\nsamples = 149\nvalue = [172.8443, 32.5658]\nclass = Died", fillcolor="#e58139cf"] ;
45 -> 47 ;
48 [label="Fare <= 1.5\nentropy = 0.8034\nsamples = 139\nvalue = [60.0492, 184.9737]\nclass = Survived", fillcolor="#399de5ac"] ;
0 -> 48 [labeldistance=2.5, labelangle=-45, headlabel="False"] ;
49 [label="entropy = 0.0\nsamples = 4\nvalue = [3.2459, 0.0]\nclass = Died", fillcolor="#e58139ff"] ;
48 -> 49 ;
50 [label="YesMr <= 0.0\nentropy = 0.7865\nsamples = 135\nvalue = [56.8033, 184.9737]\nclass = Survived", fillcolor="#399de5b1"] ;
48 -> 50 ;
51 [label="Fare <= 3.5\nentropy = 0.3015\nsamples = 76\nvalue = [8.1148, 143.2895]\nclass = Survived", fillcolor="#399de5f1"] ;
50 -> 51 ;
52 [label="YesMrs <= 0.0\nentropy = 0.466\nsamples = 25\nvalue = [4.8689, 44.2895]\nclass = Survived", fillcolor="#399de5e3"] ;
51 -> 52 ;
53 [label="Pclass <= 1.5\nentropy = 0.5551\nsamples = 17\nvalue = [4.0574, 27.3553]\nclass = Survived", fillcolor="#399de5d9"] ;
52 -> 53 ;
54 [label="entropy = 0.6902\nsamples = 10\nvalue = [3.2459, 14.3289]\nclass = Survived", fillcolor="#399de5c5"] ;
53 -> 54 ;
55 [label="entropy = 0.322\nsamples = 7\nvalue = [0.8115, 13.0263]\nclass = Survived", fillcolor="#399de5ef"] ;
53 -> 55 ;
56 [label="Pclass <= 2.5\nentropy = 0.268\nsamples = 8\nvalue = [0.8115, 16.9342]\nclass = Survived", fillcolor="#399de5f3"] ;
52 -> 56 ;
57 [label="entropy = 0.3742\nsamples = 6\nvalue = [0.8115, 10.4211]\nclass = Survived", fillcolor="#399de5eb"] ;
56 -> 57 ;
58 [label="entropy = 0.0\nsamples = 2\nvalue = [0.0, 6.5132]\nclass = Survived", fillcolor="#399de5ff"] ;
56 -> 58 ;
59 [label="EmbarkIsS <= 0.0\nentropy = 0.2031\nsamples = 51\nvalue = [3.2459, 99.0]\nclass = Survived", fillcolor="#399de5f7"] ;
51 -> 59 ;
60 [label="entropy = 0.0\nsamples = 19\nvalue = [0.0, 32.5658]\nclass = Survived", fillcolor="#399de5ff"] ;
59 -> 60 ;
61 [label="YesFancy <= 0.0\nentropy = 0.2717\nsamples = 32\nvalue = [3.2459, 66.4342]\nclass = Survived", fillcolor="#399de5f3"] ;
59 -> 61 ;
62 [label="entropy = 0.165\nsamples = 30\nvalue = [1.623, 65.1316]\nclass = Survived", fillcolor="#399de5f9"] ;
61 -> 62 ;
63 [label="entropy = 0.9913\nsamples = 2\nvalue = [1.623, 1.3026]\nclass = Died", fillcolor="#e5813932"] ;
61 -> 63 ;
64 [label="AgeGroup <= 1.5\nentropy = 0.9957\nsamples = 59\nvalue = [48.6885, 41.6842]\nclass = Died", fillcolor="#e5813925"] ;
50 -> 64 ;
65 [label="entropy = 0.0\nsamples = 4\nvalue = [3.2459, 0.0]\nclass = Died", fillcolor="#e58139ff"] ;
64 -> 65 ;
66 [label="Pclass <= 1.5\nentropy = 0.9987\nsamples = 55\nvalue = [45.4426, 41.6842]\nclass = Died", fillcolor="#e5813915"] ;
64 -> 66 ;
67 [label="Fare <= 4.5\nentropy = 0.9976\nsamples = 52\nvalue = [43.8197, 39.0789]\nclass = Died", fillcolor="#e581391c"] ;
66 -> 67 ;
68 [label="entropy = 0.9999\nsamples = 44\nvalue = [37.3279, 36.4737]\nclass = Died", fillcolor="#e5813906"] ;
67 -> 68 ;
69 [label="entropy = 0.864\nsamples = 8\nvalue = [6.4918, 2.6053]\nclass = Died", fillcolor="#e5813999"] ;
67 -> 69 ;
70 [label="entropy = 0.9607\nsamples = 3\nvalue = [1.623, 2.6053]\nclass = Survived", fillcolor="#399de560"] ;
66 -> 70 ;
}